-0.4639245055011085
0.35614697659384126
0.7308462513661591
-1.0196547108967344
-0.4757448483279617
0.5933698627973651
0.3412752955402925
0.14380935367712988
0.8601514529377865
-0.37150352764993916
0.6822335839349989
0.2250421133866552
-0.11504304627048359
-0.04479701202986333
0.4696042834059465
0.7883586804057905
0.4923287570424179
-0.6726912784452129
0.35934838960386173
-0.9268414887808237
-0.022455302272994474
-0.3826175794011513
-0.8140054664348165
0.36633787942898755
0.3056615908303699
0.4377112506767021
-0.8086015187286197
0.13447399730144993
-0.3952361831212737
-0.004534452042395678
0.18448239361828878
0.6762585440330104
0.20880795830235654
-0.8352475586162851
-0.6639940598859163
0.287727498601194
0.40929495535738725
0.9131715428174418
-0.6702464402420462
0.6281695118844948
-0.23996123322686438
0.10843025535286975
0.3839847813492865
0.6136083191084301
0.7643794214983135
-0.20842856528056042
0.8560711162619228
-0.775774064176408
0.49935695442183875
-0.9049998155036955
-0.490747164758978
-0.9910777312394016
-0.9820034958696081
0.4358973612384506
-0.9200881351853754
-0.10070195095427259
-0.5926118386106491
0.3233531544953892
-0.49933487284992634
-0.3950819911507108
0.6376407552344621
-0.31265155023134644
-0.6890150400183407
0.2966062819284364
-0.5777449288245826
0.14070864937676153
-0.8671237427009979
0.4307257571424744
0.605512515432002
0.22135781919777736
-0.38574763182672905
-0.19342525759893797
0.02232222207361712
0.480068174228476
-0.8213384349366929
-0.2931490694290753
0.29153537305350363
0.5749248215668761
0.6851020800858649
-1.0308977971977171
0.7042893949922778
-0.8246099341104141
0.8300261118986276
-0.6124569654371441
0.896718666101398
0.8243786832614199
-0.7300926113530284
0.6409885296855586
-0.5017000166754061
0.15292434143121578
0.8470920045842225
0.05991971220754959
-0.8601624491878755
0.4646934328767967
-0.9196349688673667
0.6553484299934204
0.9610928065359915
-0.602211903680411
0.7832228018997679
0.6749398349339832
0.028659726357535772
-0.8082259782264613
0.09182207601483962
-0.28514001395436006
-0.3739235771841059
-0.9621047259237779
-0.08669992640524761
0.4136218172556467
-0.9422782235261667
0.7526527201431351
0.6122911255449907
-0.5783402900555571
0.39807230902318796
-0.7865839517524638
0.11344625704101237
-0.7133657690899285
-0.14539051087310145
0.9470592498510012
-0.8757973929177125
0.4450885834485603
-0.6934893307527686
-0.573376598313143
-0.2808365357435526
-0.6405057209591033
-0.7928673604118511
-0.6947491034336211
0.1886751764702911
-0.5794347762538831
-0.807701591135118
-0.6655718861438292
0.09730799277498098
0.398807865649027
-0.5419571397761671
0.18598620814997907
-0.9785572753083981
0.5796189426468492
1.0717886283369975
0.8386256498485614
0.547057110894825
-0.4545688323049902
0.050969288569821705
0.27065129584600145
-0.10277029695152977
0.6149820342083255
0.9104727972138404
0.37323482284033144
0.9974350597517629
0.059602489891935784
-0.033340519252336276
0.477934460225005
-0.08441338917149267
1.166143472900156
-0.2530006265034764
0.5675145570064152
0.22183714502936902
0.5906397740696021
-0.37222951702621226
1.0096452419798116
0.6877025984640286
-0.7995714918198167
-1.0487968121070028
0.4563673465453419
0.25813297998145546
-1.0050809138194148
0.7219231027130287
0.5678190134694725
-0.9505408943423568
1.21002341761326
-0.5969945370130969
-0.5034832640271195
0.721300092986433
-0.7131979747371199
-1.126210040581812
0.49613263939873287
-0.6972847814533674
0.6363958590281146
0.28364207373493877
-0.4053209968323264
0.7922369307697457
-0.7263803181729485
-0.024992799948204365
0.39939080943398964
-0.03716458585739644
0.5637632201082456
0.7077053299180789
-0.5503094589096584
0.495852072742361
0.7199854705568818
-0.9269725081959121
0.7603359029649849
0.4148832681846332
0.17279870749142168
-0.272629762608942
0.7690310501199846
-0.5184317439948269
0.7462710771776481
0.624084540568001
0.18483211443397093
0.017173830855981367
0.7175304065923662
-0.7679409397659664
0.17417536203859427
-0.3630962350903589
-0.14929231742432722
-0.8356215552152785
-0.47429383999237806
0.29488698937140934
-0.04050475653545683
-0.3542627378022464
0.7861888130440755
-0.29167097381357243
0.41574311811475967
0.5789994645549276
-0.5506247135596916
0.45960435808976335
-0.5883840354551613
0.022466434178887933
0.13189907089300315
1.0224190750199502
-0.8331614152172476
-0.590598869784521
0.5038821160268867
0.8117673188043892
-0.7428874987989714
0.6391412018893495
-0.8271536869723828
0.8565399648122308
0.5327107989685343
-0.34841847406078463
0.4392769918867981
-0.3890715898315603
-0.4263942348582029
0.4908573877409495
0.27198803522270903
-0.48909510439353465
0.5518447658655085
-0.9078318471730962
-1.0106418780335293
0.18591979697294994
-0.2695853594998482
0.5449203841703796
1.144846031530356
0.04869089962880656
-1.1480797684502106
0.028936259572478792
0.2650781923727725
-0.9207646458516638
-0.6996413578848535
-0.8846032501756561
0.5258022618630004
-0.5466747470403374
0.5434864288350398
0.6824205141084596
-0.21051734679562722
0.8097998534203321
0.17951899006812977
-0.8066610991844584
-0.6418565549691224
0.061345477449541684
0.10231642490066671
-0.49613326592514895
1.1569967577628157
-0.7599691504032575
-0.37013709667126227
0.9758799862623099
0.6197988059639896
-0.9982632935542771
-0.34794357269476545
-0.3138633354598289
-0.02165426095441273
0.6362945691391341
-0.444202928938015
-0.6781757689872451
-0.2543580663793056
0.2528150768372733
0.6787462149273286
-0.28004176470021036
-0.44439139935850613
0.279730799993477
-0.5300618067435378
-0.43426149129510905
-0.6219066232608829
0.517011935306282
-0.03872360372008504
0.6629879849281274
-0.6685501665259438
-0.6489896157592449
-0.09530309406988903
-0.32179647674478956
-0.1734498007244511
-0.7946652165231731
0.9915066192253461
-0.6390458428691737
-0.25695060555250787
-0.5295649293891855
0.8793239997723075
0.6674943678314561
-0.27393197304864464
0.09576337348149741
0.8231196245360686
-0.8632725156303638
0.13677673642627558
-0.917324975770141
0.4427890290079301
-0.3027206106392864
0.6061551271768822
-0.34875160384056475
-0.44455140499664175
0.02613846475071753
-0.6711166864918723
-0.7876573894156806
0.4152533724549096
0.8128015500417918
-0.0629804595956511
0.8293546848801873
0.6622660899826474
-0.6358943181708888
0.699162543970041
0.6489097499574548
-1.021173306061085
0.8514640032861756
0.12275679279220292
-0.436785911810789
-0.23075109004697258
-0.2683840170925384
1.1700448093572693
0.2327915835246228
0.6929134211746956
-1.0620799462854962
-0.26015119656930613
0.48215691952037965
0.8598432635180597
-0.1080071562252195
0.7467239393301717
0.38080197311253494
0.7748354048352221
-0.6914859848559706
-0.18856491202727493
-0.9168953167540108
0.43636706741984227
-0.32135097922098127
-0.1949545495915817
0.18162122506854794
-0.6914966457227951
-0.2697568019735367
-1.156149602835769
-0.055198307513432444
0.026743537431782004
0.8692343428340822
0.45254790392351324
0.6981682585837528
-0.32039529706804903
-0.11185888782201014
0.8144005883622888
0.41790642920015686
0.5043671674584815
-0.15484183780409475
0.2579492007014432
0.7628347472401494
0.37707837899299296
-0.9788750376254863
0.7360101653011282
0.4122560438913667
0.07124164927655255
-0.48427611255655467
0.45630367578777364
-0.6164691297782965
0.4003940468305641
0.0015134967859431604
0.44408362440937377
0.9068252205494735
-0.07030166352223015
-0.8552159955734708
-0.6297241195094295
-0.8559524112312458
0.04359789771270536
0.8977707175872242
-0.6883203256120137
0.5460057527032015
-0.5943754111677128
-0.2573613023345769
-0.05295118564891587
-1.3956671003499383
0.16316448045285162
0.5600864681564873
0.4407624707012051
-0.303160174827623
0.14216925048480786
0.370995483119601
0.8025147658800232
-0.32210324124020734
-0.6621770144919391
-0.6508594536528776
-0.40857047578869843
-0.9083131400236204
0.9282646993838547
0.5261345373799342
0.40422906059244584
-0.7674072338349165
-1.0648445653107692
-0.6007945562318479
-0.05670560055225157
-0.5371354624062882
-0.6627836748237439
0.523436468998306
-0.31292526183025043
0.9553965403753589
0.29698730820190355
-0.23946114443758776
-0.5563560546668463
-0.6666950993976019
-0.19568822263597313
0.4801174160127652
0.9305402593873704
-0.4079690132144098
-1.029222731346369
0.7409341531761134
-0.8703617250953495
0.05291044916590678
-0.5416144485608595
0.3074774845462033
0.6745919567941966
0.11809811248108582
0.39682318984324927
0.06966944658833586
0.3935432160066969
-0.416221882740591
-0.1900300173654917
0.28387225099787927
0.6471717312754753
-0.22900367367414912
0.907517318191748
-0.06251504971353439
0.5082508205552068
-0.78378300679192
0.6755787886649726
-0.27206713667682964
-0.7927075931416796
0.5919931269828075
-0.49060675953009736
-0.33070770280811346
0.7716744626844033
1.062221413709026
-0.18302536878845976
0.8179387523482596
1.1160661955610396
1.0054007523472308
1.043986935741308
0.8003064000369347
-0.900243966182615
0.38613040325642767
-0.18175890833202024
1.1607428224965133
0.8526236112250156
-0.914038778441884
0.5859460297815053
0.12817361097820773
-0.4599482061707472
-0.5127192061836714
0.1698784237558855
-0.17351247866947955
0.707994727145302
0.18445084773637815
0.4444780253730336
-0.8293235243487334
-0.8206730407922838
0.34560319831407954
-0.3860816688434907
-0.9579814186608037
-0.5343881853520653
0.9459385109559953
-0.5897446960100464
0.04118212268181131
-0.11510436826121533
-0.8637768630338526
0.38433653092994446
-0.28700735949110673
-0.09785670959697779
-0.7750879240724409
0.6719665450766313
0.28674969585128635
0.8480570854088623
0.27978926658053976
0.5206127358135003
0.6030233981675279
-0.4086731921694532
-0.12042264817165031
0.20164276332765357
-0.08180310084388537
-0.5917161361626777
0.07098034245609448
0.2418276143552732
-1.195372438395415
-0.16453729150154597
0.2955881608465351
-1.0893323859078776
0.30818440245901835
0.8323846840123906
-0.18676079520747133
-0.28180513627879394
0.21795279611303037
0.9580098671712899
-0.0720786271604785
-0.7865033748921614
-0.9877387870270522
-0.5528400843964119
-0.7890136880179454
-0.2484325704412606
0.2859528578441893
-0.38239322155377325
-0.40824868967165523
-0.8878194585615636
-0.4105930732495752
0.5828285384728249
-0.8806974806966289
0.5921998370565288
-0.8390209780606186
0.9078525729165783
0.39474960673784126
-0.3537912257676748
0.4449366140740148
-0.6030036298302844
-0.7271975063268028
0.3048038279082225
-0.8845389781077526
-0.3665766300598093
-0.8351815791783507
-0.699556169139651
0.11853750031077832
-0.28738369058324537
-0.3214522063245823
-0.4967571092796211
0.528011111588816
0.46950197357931284
0.8792661613398804
0.7825641291585307
-0.2957737735021618
-0.8301534419022318
0.5680539403086935
0.8257208192884481
0.08617649278992555
0.7621721348921533
-0.0059210706444609885
-0.32063448669705197
-0.7402483094484514
0.12213601646363174
-0.913936761533412
-0.8351286020371785
0.6313050182736465
-0.9755971073714447
-0.10023863198879054
-0.5758097952187056
0.23493634701269017
-0.8515028673638905
-0.7592456555614828
-0.45592494543841
0.5301800939616772
-0.8462886339145963
0.2482450131012163
-0.9988645112911612
0.427968273165985
-0.29966064398507014
0.3617902626002945
0.36196352445391144
-0.7226108482037781
0.5009783028759307
0.5437807187859099
-0.6331504903700385
0.34980287003481614
0.7257968702050668
0.5700102719562222
-0.4212966128321928
-0.823405923680233
-0.8802563663792791
-0.984202499704611
-0.9869396124217612
-0.2964384104414031
-0.3404111862822205
-0.2940952655310756
-0.4881986448527512
-0.8101818791971331
0.25124488051255606
-0.003918604681580556
-0.28739926704551894
-0.5002794557435671
-0.34786987505480166
0.8300367686417325
-0.32104261734203815
-0.9631279684912535
-0.5974223492148082
-0.5999135322028611
-0.8714981790841189
-0.6843698241702283
0.4006784638225504
0.34328465420865095
0.31795310234053026
-0.7258575108976196
0.9200378476837625
0.3369322066161752
0.5085928439856414
0.32869255889460064
-0.5220817911728693
-0.1625826425721999
-0.47098152285824146
-0.08510507792732036
-0.5859622192047732
0.9702566827699594
0.5442824738419233
-0.3850839328033416
-0.6701812277213682
-0.24609307856833817
-0.4229281917422115
0.5337632279583212
0.5314321679141432
-0.10437645834638487
0.28026759904783194
0.9398179439859361
-0.3158002176939581
-0.567080575602524
-0.022533376756217825
-0.703844762661422
0.4809826698833739
-0.8304977996491697
0.08486001497518345
0.010042616838880322
-0.38217403230028235
-0.876073968414077
-0.6475252155544287
0.134991820349903
-0.40144295106741723
0.7352711821632165
0.3587768958122655
0.24950015347805402
0.1775542621961364
-0.7313514048254555
0.3687866172473169
-0.5790273286608818
0.9810498319039072
-0.4977725339949987
0.7024943491956669
0.8259703364186542
0.486865605844998
-0.5243404803461558
-0.1198458994183258
0.7126138309747794
-0.38195480020734873
0.5269928744188117
0.8107193904427823
-0.6392991608382527
0.6157489796266872
0.8748035842159279
0.010826463237539002
-0.6770182250049237
1.0724587763500528
-0.7285537254274213
-0.3568589170526779
0.29441372493992235
0.016238609533381652
-0.6629655264523237
0.7682825711243068
-0.40216886554897757
0.5061784212305549
-0.026209857108200688
0.5742811855550027
0.4801243927442656
0.3143558247614422
-0.3070246371083131
0.40485675743207267
0.954515672929141
-0.10608399356953131
-0.020668470788608003
-0.97623447897278
-1.0820241632758827
-1.0158669505622455
-0.8710812268959517
0.3529659412718167
-0.08529593893357143
-0.23269887426442132
0.9193178477844816
-0.19724353816579823
-0.4332732782814674
-0.5332088697673654
-0.8595023317709275
-0.45100181238344095
0.5441741849177283
0.40968639191774325
0.3396171995730144
-0.3686232555941502
-0.7749548736908793
0.06135236888094353
0.349099645839509
0.8081839904941909
-0.5100707105386707
-0.48696206709747053
0.539507093741868
0.7550514109855739
0.03343142581211653
-1.0116377010616153
-0.38963232831551803
0.5284395482101645
1.0149876051599855
-0.6859829590998769
-0.38601532679387685
-0.08922019840801355
0.06702708938893732
-0.4352507177892842
-0.6821862281002544
0.810207631274928
-0.7820842105054944
-0.5125103832042912
1.01649377390127
-0.5537875010657136
0.602229316597673
-0.4862157494650386
-0.7918898215390433
-0.8692990929360166
-0.4001733758937069
0.5192203628166651
-0.2220599664489526
0.5287190447849905
0.3622378345034616
0.9735697499442751
0.8370274901895445
-0.8352709470800478
-0.01666793077007651
0.2772004954535718
-0.6125297919590079
-0.40448051420518544
0.37388059108779237
-0.07559247772140898
-0.2930976191812096
0.15611615598147616
-0.6210255202093523
0.6271381416699479
-1.0996301444785004
-0.26516425616714084
-0.19318665488127582
1.0769463777699526
0.7406778133931415
0.5661426703072534
0.7317944536281503
-0.030650510683491033
0.05918741932816449
-0.02948200590421335
0.5121434740754963
-0.42781079343205763
0.33276596599371666
-0.48379109100307127
-0.19897511214371086
-0.5875577763107354
0.6245783288542437
-0.5237872588058681
-0.41310336756762506
0.7544073598551267
-0.7173551294182849
0.7268388328431576
-0.7342964392683922
0.14605366196483502
0.8838342767330284
-0.7386962471820497
-0.6915548229729523
-0.9242418138641758
-0.017422019357176376
0.8024682639900227
-0.09371174454092797
-0.5664512969473179
0.9694331092971581
-0.16228085044587454
-0.18301223031565983
-0.34980453570509
-1.0039215039561358
0.33034949931713775
0.6136662369057089
0.8080207736231573
0.694688714058623
-0.2799098659363065
0.7184696953285757
0.9085843025879472
0.2457647343037428
0.012933082565342056
-0.6122799881745623
-0.04947908710698253
1.1924037528460196
0.7628518132403863
0.27544638613515093
0.8171488865022286
-0.7223783565650699
-0.06251785524996241
-0.19955861537029407
-0.7534150288497953
-0.5193583594602036
-0.6408984558409665
-0.21118072714814157
-0.7957457804053188
0.5094346369666064
-0.6364011289253203
0.29060332659065374
-0.5217707700401145
0.963917595968453
0.45413954892918557
-0.33148471941110963
-0.4716491520908002
-0.23176617861789142
-0.092068679728769
-0.7740726538040751
0.7389861430587025
0.005547924199050056
-0.480963951826539
-0.2985045952116578
0.6584531500993199
0.6477281061505881
-0.3278781386698014
0.1554414815656358
-0.8395778656803241
0.6207742852188247
-0.20108869172578642
0.021446477189428256
-0.5726125830680674
-0.6261960486619041
1.0015557530481454
-0.9047407568735492
-0.39110058439368023
0.2445217721963071
-0.922320696476411
0.6872967063507526
0.5934026594797444
0.6416359984237644
0.24746165304371634
0.044717943772623635
-0.6191302705070232
0.33340304139029203
0.4203165119344638
0.27358874099725355
0.5611041582217252
-0.7632060811776766
-0.3119963500390234
1.4255080140354524
0.8248613360508171
1.173710348260387
0.0869680582765005
-0.5386350356827627
-0.8467454368484592
0.698239163192386
0.6246528684098873
0.7836875985479438
-0.031565595590810444
0.12694192068943597
1.088406215647445
0.12569386558988613
-0.6670961421014686
-0.7405409923307007
0.07912984933568372
0.3488332306568658
-0.6591757885624835
-0.12416329077714372
0.7753369934482577
0.2309786080122033
-0.6109636968156341
0.5232031528132827
-0.5432735490806945
-0.10579455698615793
-0.4396175022892711
-0.411133184864656
0.5650540725137818
-0.17166906365858864
-0.32230956775194297
0.06114048814339788
-0.07786609445259388
0.946362199580082
0.020490944687843776
-0.6883425787053984
0.22053451429624119
0.43623352192484943
-0.5786044232533475
-0.03833103872593682
0.3487189563823344
-0.8416104972677027
-0.5478600723033917
0.5050696023667403
-0.1768063617166276
0.1992073773880537
0.7090658967424333
0.3045740676063702
1.108279128873347
-1.0186973990764592
-0.27819334314013555
0.3576516073667297
-1.2410411922716125
-1.0065461291835667
0.3658677758326572
0.9032222370081496
-0.5298601676883244
0.8529845601315682
0.7376333254226386
-0.11013439348572542
0.5616766797342949
-0.5338927748249616
-0.6658048272276278
-0.11842204322845544
-0.09724226755514769
-0.09323170817951534
-0.896105310209234
-0.6370360824705125
-0.048715623253908116
0.6124899019277544
0.08705702546207816
-0.8013808311313693
0.6683493956280344
0.7042633444449857
-0.9390992274866117
0.651648097375721
-0.470630304534245
-0.5192113786676213
-0.23168703352837786
0.17699622133557782
0.5265960701529638
-0.7805790154841228
0.07043049512024843
-0.9143270033145308
-0.10575449970633326
0.22398336809598723
-0.9640736017989752
-0.6425832617568348
-0.09807676299759087
-0.557725185424256
-0.6438627355091253
0.5285916611633373
-0.8697831223387513
0.5281131156675954
-1.0292612633371596
-0.4361266057103862
0.8710581002227115
-0.7644345915132571
0.32962050185812575
0.8020315165333604
0.9371800775697462
-0.8822477398828545
-0.09401101174918813
0.37369381928615975
0.5083063266397054
0.3983758090666468
-1.0002796132493796
0.9459867991083818
0.75786501315832
0.9230218978836828
-0.7608458532167328
-0.07044689089464576
-0.18592872495809745
0.12402703652030517
0.8163031533895787
-0.36543396609016665
-0.6646932142143988
0.8004451108724697
-0.08166224587803785
-0.8231177666039795
0.03937593120889793
-0.2187220654990099
0.7993595176454037
-0.9563596153263899
0.2049544840878071
-0.39462712979789355
-0.22726519175214446
-0.8946472449024162
-0.3803544150551339
-0.2814927435487634
0.06870050866172406
0.6567340682130822
0.10757015018856063
-1.0158127874936635
-0.14580176792975538
-0.6299530676648862
0.3579652065176664
-0.7531714427798755
0.1754993240463245
0.6707253421464466
-0.443337193191187
-0.5843492389676844
-0.26531617134504154
0.13330306172869064
-0.16867834948817736
0.000356467220613431
-0.06362996109989637
-0.25661501892235644
0.0045895688234861105
0.044338427490773435
-0.7601016844392675
-0.9135078805844995
-0.6614085824689692
-0.31859536729988436
0.6193482969964594
0.1356413508471259
-0.12952565369019395
-0.5349454486132631
0.38956565816066185
-0.9129193005060416
0.44363749857563256
0.012085329820748211
0.13997630704036515
-0.6231054341906641
0.6119261011580682
0.27081176145010205
0.8149440001641206
0.34986594802412857
-0.08330429702808705
-0.8136525872631101
0.4402350896183142
-0.8694920581360626
0.9080052900033668
-0.3783677509840803
0.6237618800525604
-0.7809622735071464
-0.19147184674986717
-0.635663593760821
0.9003964708740675
0.23666079661730172
-0.550124341915532
0.5650954584516287
0.48837549176853934
0.30140003703584883
0.4601061755084932
-0.2126946689363587
-0.1785301220987338
0.6145383221931671
0.8490776025797848
1.2077848231414914
1.1725929548374665
-0.9989215212937687
-0.5947104178385764
0.831074932586598
0.6528586113550237
0.1618701180397014
-0.06994134177973883
0.3546005743757244
0.5784298645534034
0.24756193456253853
0.3798174258552229
-0.2755449514155049
0.10168588578706428
-0.13683497661776015
-0.8940578837356195
0.026253411467829467
0.2513041262438879
0.8140251460700508
-0.4387197663785476
-0.6963509690399878
0.6215231548917036
-0.30723883263438057
-1.195769173775529
-0.8450453320339656
0.015428801340479399
0.499848657257773
0.3584320585782587
-0.30824901471047295
-0.6703939666743531
-0.4902985635907906
0.7961381609927873
-0.12267476781957595
0.7104250937482792
0.32655486233422054
0.7635341730997431
1.0180463668714206
-0.3862446576018193
-0.5386936015010364
-0.33173261485926214
0.31849711071666154
0.2257228488219285
-0.39545987606372895
-0.43695548670697226
-0.21347722740328973
-0.07213088107897567
-0.6654608180446205
-0.9843322416739765
0.35294774192892947
-0.3126113342906654
-0.21349898342013535
0.05435220275388642
0.42396676326416266
-0.9389764231350154
-0.8955853011795317
0.22811915010856137
0.3705647744840372
0.04039275348705592
0.5520758334798742
-0.5754069075876406
0.837363480184981
0.96111457575108
-1.017795549781449
0.4706023298535102
-0.2951012627057993
-0.27268526731387627
0.14468636750758734
-0.2562299300283805
0.35163987250819356
-0.3600446162100265
-0.6131916655989568
0.8052779277825367
0.4194356245610032
-0.7613516566870874
-0.16945296628497783
0.6582533487439615
0.7359073465301823
-0.3284676634015562
-0.18700410093678227
-0.36729163989047764
-0.8960157838307584
-0.4226822755412331
0.8931438542012932
-0.08764204228011833
-0.08299509226411315
0.48298118786493616
0.36610440174094316
1.0568432204359457
-0.8929906471660375
0.6043567339073384
0.7319212675492883
0.10483251338547647
-0.18588877535233858
0.859376911845471
-0.4449289441588605
0.3196404653245179
-0.2196524248460005
0.5711214331046753
-0.14698437134157594
0.33418337644143375
-0.8311210663489801
0.11781507998412266
0.85612071897759
-0.34493309797135535
0.03673834594353978
-0.8042187614406932
0.9420243669614866
-0.5968236465459925
0.16435100270299174
-0.2822346108612017
0.4095540857417975
0.5680172660784174
-0.732494238734736
-0.6997614017368229
-0.828349414912479
0.07827316128540242
-0.8343101302862781
-0.3583149433724205
-0.648676733319105
-0.7934035118938336
-0.007668285844489979
-0.903600326193925
-0.5571119514675591
0.7405972740147467
-0.9303342026101611
-0.8864926851116427
-0.2921381559527581
-0.7276835754630888
-0.4694910985595108
0.1419161923342457
0.34770909956085916
0.643965635080648
-0.884958767766606
0.5923203225985744
-0.7630613911497601
-0.5364152772900908
-0.17887610479918503
-0.73500014828437
-0.9306699010483253
0.056450848473594634
0.502931500681232
-0.88025060926698
-0.16643960155739926
-0.03170875563760569
-0.998612285081206
-0.5792381428324941
-0.2986619270108617
0.7060627598145075
-0.2509926465638856
0.4990339286023619
0.55672304838724
0.7896598096791829
-0.1683846506298302
0.520909933407417
-0.2396969203387561
-0.7349686688711752
0.5136767977311132
-0.3898585126336143
0.12432901498118343
-0.4143214580512282
0.3023604365265631
-0.6937860068490733
-0.9981374699422865
0.6846223424519465
0.17917243607772046
-0.7687908453238764
0.7045952768404412
0.5238252992963665
0.5391654629081348
0.9479006891920775
-0.5867548455757883
1.169315694893595
0.34113241838081737
-0.5435584753222142
-0.7387908059710712
0.20104939825406287
-0.03325118879167565
0.5651806019349156
0.9060696755513418
0.06930769720247812
0.5793510108411605
-0.2890439904206323
-0.3572099796625
0.8698202949227688
-1.001462416558384
0.6217226409889073
0.2358706554346995
0.28879273864895666
-0.3524581739309405
0.8998523770100275
0.8290824790415287
0.4283767647869446
-0.7267583213066279
0.698285122868293
0.7093214606986458
0.1429224206087524
-0.465976026419784
0.10908604551542853
0.8491172375297628
-0.03260057782832902
0.7116658952939996
0.32219653951498156
-0.2133719642573004
-0.7275055519424607
-0.1536194160549698
0.242220057134936
-0.35187707752229097
-0.785160565132421
-0.016726512098293688
-0.6074590308615043
-0.6918179249354071
0.07548254104100292
-0.04494314470564442
-0.18076332393220682
-0.40731930811006034
-0.8367264151068426
1.0212786213443097
-0.5452839809666631
-1.1707615097555717
-0.7061930097381534
0.6334990626732412
0.30075380114224826
-0.873893726176296
0.012123615330929871
-0.4666091196824565
0.543751109355594
0.5352397995572853
0.6129453676698616
-0.7538656950661557
-1.200622418105618
-0.38809781266630994
-0.4384509947681192
-0.9262402242762903
-0.33803034471169724
-0.826438538689152
-0.2622627918527472
-0.5030707355670196
0.888754900090189
-0.031093068439502332
-0.8261816519129717
0.004556826698274364
0.2244507413793151
0.7200598297624115
0.33287091058158447
-0.952509139667294
-0.3782881931294109
-0.24901054465986128
-0.6974833883740948
0.10439805752483511
0.027551692618987815
-0.5725030028443824
-0.5939370162721166
0.21067216727371801
-0.6685581102100944
0.7753906292599546
0.08809859786215807
0.32821868347935684
-0.34308390485788837
-0.8958343689664099
0.7126401737135198
-0.23140882304587743
-0.2969207412322517
-0.19537864400298854
1.0177971623573638
-0.3562978126090644
-0.05378574058610373
0.1353468081901634
0.9483595735494211
-0.08931947012846436
-1.0846820189054254
0.26868739259711644
0.4803256996294069
-0.04389707705093779
1.2589260004834546
0.301237176145336
-0.6467140978891377
-0.3805212139953483
0.1030244156980621
-0.5101992691175499
-0.7847517974056171
-0.6103481016998573
0.7644896248422612
-0.842643238037184
0.2159428826111424
-0.6121469534427668
-0.6506935820531827
0.6573167963551567
-0.4787790611851341
-0.4775314945272104
-0.3483493898834816
-0.8698762394897493
-0.28390271487909946
1.0614652024440752
0.8502883285491557
-0.4826550365595118
-0.20943002438083277
0.034062340148568314
0.6363074887976652
-0.20375963468130515
-0.07357913131123503
-0.406964484401832
0.06737025281017121
-0.2742676317392824
-0.469430712858138
0.4378143726327385
0.8552546644939116
0.20813173914548183
-0.47859860350484373
-0.8286811317133433
-0.826837001653919
0.7338827283382524
-0.3188492506656271
0.06820083704344719
-0.6303168856577968
0.009286787978374735
0.10417421198927894
0.13336151313209801
0.5246717884767478
0.9970402044104794
1.2106964581290776
0.424167293427646
-0.9044916638476732
0.6235469245213496
0.3013639176260657
0.7504928092650304
-0.1719012101589674
0.30500770420733714
0.24964909028447238
-0.04804625701073954
0.008992066688722314
-0.6365078700204096
0.32730558894389383
0.2918187177285603
0.8016540899268558
0.42448025440809706
0.3800429136804101
0.6393954820662493
-0.24906876530985447
-0.481325129193479
-0.8094127686767368
0.6789590849853427
-0.39497420939202255
-0.06649538449376116
-0.2398012891433064
0.6835535486153336
0.6506838133504859
-0.6584094858244393
-0.14123007231188733
-0.4133734311837729
-0.46698016239510787
0.1669923896497951
-0.0709341664466029
0.37186176255258274
-0.6844381699642607
0.6823070977131988
-0.49847614972442067
1.023209756542591
0.8260453534037343
0.11338993514906702
-0.49518807180677954
-0.267019139902115
-0.9289466484618765
0.41682499073967433
0.924934906275082
0.6201773239322607
0.3982610190910375
-0.8720809522644806
0.44759079626959813
0.2884462204526899
-0.9066630683325676
0.24141087217917087
-0.6092700482749626
-1.0033050125361984
0.18401669718087305
0.4957945889504542
-0.09165879244296243
0.9051711725195505
0.46803940370779207
-0.809682205246646
0.9866222615674415
-0.46791568383153254
-0.8762479122113486
-0.9231429301968103
0.4451318300058559
0.9466123174228022
0.5609610741966952
-0.9595946640861118
0.4003206004514795
-0.44469517455242213
0.6331842145664577
1.0918007742918827
0.7331682912304053
-0.12683637713739548
0.054041426119855074
0.517641947369915
0.003645077589711558
0.050687038700160086
0.7479690480253225
-0.993460013587854
0.5886037913570739
-0.23419154353488533
0.617691247013816
-1.0239010242480433
0.660592006098007
0.031041445946215458
0.06546858531575735
0.23073880060622282
-0.6891333544052358
-1.3187724710330566
0.4181087811429938
-0.8244023308483084
0.657673063679729
-0.7198254671853447
-0.4725630365991941
0.8515206117056243
-0.7673487430401359
-0.5182289264542933
-0.13335384121267818
0.2513264331727316
-0.20463776622701557
-0.28001079389248235
0.628314384101665
0.1614751086228565
-0.805367722382872
-0.08781013399866787
-0.41372591610111736
-0.6721800520946855
0.5770865252566372
-0.9188017276911306
0.05974720392874451
-0.5153747840903926
0.24202462166717442
0.8012096568583441
-0.6330995576278142
0.011422493063998914
-0.940427401757237
-0.10483006830099437
0.5953569953303535
-0.7336903805743828
-0.47682974615952495
0.9248471888051523
0.2305020881068085
-0.8285640913096091
-0.773081428753334
-0.39115938601163414
0.9212379096942168
-0.912526740798165
0.4054272264312758
-0.7368552422130117
-0.8966521597637248
-0.5066170481806632
-0.4831800997607508
-0.16362606966589063
0.890573889778146
-0.17280895718402686
-0.6169938727937191
-0.4118822804044158
-0.4217428279001978
0.04733143432264578
0.3844219423938253
0.09229297675682174
-0.15511036291536778
-0.2545980255457257
-0.27355222700544957
0.4761347824492931
0.8087099354662959
0.9667379079208526
0.444306567891997
-0.9266963797020482
0.1677750139671896
0.7105564640090823
0.8540452293673644
0.27197943588329115
0.3276576213829342
-0.297390269755226
0.3861391043645718
-0.5135419802309199
-0.9605220959829709
-0.22591242650969248
-0.4176994829035372
-0.9057900728214268
0.5923758495954555
0.5033414787468796
-0.9974679547482411
0.7365450687765224
0.4336366701606019
0.8104058853166639
0.18214759135242534
-1.087134773612502
-0.06990496712056646
-1.2240492242418999
-0.06854065309368516
-0.2620311096055548
0.7625635903264035
-0.2247488477674227
-0.21006413130764928
-0.5943487606922891
1.0056970004422068
0.29944422404869897
0.4645496899380567
0.39525921446414874
1.0050387150413136
-0.5347487478566526
-0.8200449568176262
-0.1761458982384718
-0.5371097297255046
-0.7993289510800221
-0.8673995125235368
0.9964070192031824
0.7072824304274633
-1.038190020434085
0.3461959649112157
0.38571792179247744
0.9423871974652505
-0.7695339051239145
-0.07160094679036162
0.5776518803421267
-0.8618489121419368
0.5233887852949106
0.3555070835737
0.3103310539099641
-0.7849324983869597
0.4899962246125576
-0.08176726165772301
-0.33433621567378746
0.38350189566726794
0.2001392560587555
-0.46238254796528055
-0.4633364454820509
-0.8985459355955414
0.12709145477041872
0.5308467931866254
0.5631333368821575
-0.714613360832946
0.611727696166733
-0.37854134687027313
-0.3216630190384928
0.5012730855034618
-0.14405134133963696
0.18975862897227752
0.6753638366779439
0.7029829305298447
1.0432647537369957
-0.4330759449982776
0.03951877119546692
0.6771936245382522
0.8829598073990037
-0.2742815197216561
0.019851649649473346
0.48522117676971127
-0.014446553182365726
-0.1109462299503271
0.3022475221358792
0.37080739981249566
-0.07684506786611617
0.0637304352380884
-0.16286991206695373
0.5762793579456734
0.6288507008871004
0.3021633674834396
-0.0966915429221486
0.4644023030837489
0.9114116613152374
-0.7887693473649677
-0.5693444604167033
0.8074737888905011
-0.30325762776976817
0.14572842932172753
0.5961191787017043
0.9418432011385702
-0.2777944411298447
0.17783120155891996
-0.6530023924976556
-0.6945066711510536
-0.9378990160072982
0.5614335228072554
0.33397527407435146
-0.1271624266077355
0.2370712848790473
-0.9690998482730173
1.0261150792787164
0.5681204591798024
1.012262073518399
-0.915266813808564
0.09313060910020989
-0.9194949816758664
-0.5367160103696409
-0.5610107429917865
-0.20751097366307525
-0.23732240773834898
0.45893160983619224
0.30836781081518344
0.05232943646229428
-0.08115546691884902
-0.42820804312844446
0.4292996598670274
-0.37263379536828
-0.7382025934498573
0.7117088688478883
-0.5902744443256287
-0.2102812794954484
0.30050475570899793
0.35468591971257163
-0.6622514108183677
0.13118986684668227
0.3018480378424556
0.6203470483383687
-0.851938174026431
0.7794856111240686
-0.541662360988242
0.1988596135811044
0.39705449237736096
0.7359100626730012
0.4059227503444058
-0.045581212398959604
-0.4374438391872969
-0.1827445127127603
0.5124785795327494
0.29378099876264574
0.8288529389898055
0.43333110357201243
0.650319352011602
-0.17295818162502163
-0.9185184564417148
0.11703925518335452
-0.6069488057597678
0.4022346270732051
-0.08421276322295475
0.9471734378783612
-0.5078970172796308
0.8349180905647113
-0.9010841938772192
-0.17267346918633295
-0.31241401590509077
-0.034839616307999643
-0.9991273043156296
-0.12467174588576496
-0.26694523980985874
0.885767547737571
0.6769187854895266
0.8864390039446683
0.026022901743798288
0.31656732219292427
-0.2811371431558594
-0.7163220406053996
0.8734093984253233
-0.40255286783768135
0.23842921105032927
-0.07207960450491982
-0.3072889836452694
-0.7699498121004528
-0.11738046191660359
0.5855976402731821
0.04560729969892981
-0.44331277529290647
-0.15137253240902718
-0.5950183633544316
-0.6742281180946353
-0.42765951794989443
0.7939459454947615
0.7884083769944539
-0.4449580458837782
1.0560437744178035
0.6156662642039381
0.9594609308777734
-0.3076005246123249
-0.00033644663815332
-0.3226098637061517
0.04951289790999119
0.03127921577478208
-0.12535373568667907
0.5740056586277851
0.9236968093783768
0.6342066554809078
-0.4456198366779485
-0.6519177903890521
-0.5097202116132425
-0.9533118502430654
0.7981816696134872
-0.22657922334815803
-0.8408894924376519
-0.3105587590666257
-0.18677465805575524
0.9834512751442414
0.05301169286100581
0.49067333781538053
-0.7262301666193766
0.506868694992511
-0.2340275938003929
-0.7388648764712997
0.19062791560830175
-0.1683534789553397
-0.6257069100518489
-0.8659450070268454
-0.17871352312979327
-0.516099241472084
-0.944736200986883
-0.09429408022458872
0.3105774198112995
0.7631510499027703
-0.9453606250124311
-0.5118860053346322
0.48694168378300345
-0.572812941706098
-0.3147946913236162
-0.2111658753198896
0.8050157472465972
0.048507592275165136
0.47761919289416666
-0.49892472953071687
0.776202385173422
-0.23393252444692175
-0.28043162980712205
0.7619781413136292
-0.40379961329821973
-0.4320218017065554
0.5066378006789677
-0.44450585907756235
0.5235059829052466
-0.15951011390042186
0.9483176483169644
-0.8972331554369511
-0.31821212324857606
-0.795398339874016
0.048682800571635806
-0.888256054028401
0.4794015899617678
-1.067686967536799
-0.9627244401476187
0.863285795769932
-0.9961304011406227
-0.7396914948424103
0.3930402347536457
-0.39259197804381607
0.6097335416208589
-0.3016202012206234
-0.9410668449417434
-0.2526947118807978
0.11295392041404878
-0.6933419242707839
-0.030916740706376362
0.9762102257897538
0.7447926256373645
-0.005761833428851704
0.7824832058339017
0.4130965863624373
-0.8402349550520478
0.8864676870514988
-0.15631106355961202
1.0168000425794292
-0.33004907865083083
-0.4252463939130666
-0.34953119346003747
0.29870323257402537
0.5000314406608269
-0.2566934429268593
0.16530620716742092
0.8659676421703166
-0.9168443205370166
0.7985040877120158
0.9295124485469545
-0.15944494956289249
-0.35141516197404377
0.09404653958423888
0.4040338338932028
-0.26219285832043976
0.5447403191115422
0.1492422262856657
0.5673248083479367
0.9868599659173141
-0.029548813625100014
-0.7052594233702655
-0.3762153596495398
-0.25144843349086254
-0.4424627634106312
0.3733574843366399
-0.8932191244068591
0.07888630567232556
-0.09899239572572915
0.005155340285331313
-0.8810577202961201
0.9119261660536804
0.03873094026372952
0.029255405033315453
-0.025266852278787583
-0.6843740552255214
0.929451591488497
0.2665544508838488
0.6891153622789614
-0.27039974958276564
0.26727819663903796
0.4393391422716499
0.6183720766538764
-0.8303560894363695
-0.9147338415699676
-0.5617791498727568
-0.9362321872478107
0.11321701412090156
0.5558770285072023
-0.10814677646536835
-0.02861210979023779
0.000845812015793369
0.31064526646647056
-0.5506008377557821
-0.8819535139270686
0.18898391249072885
0.6819501710598985
-0.9631949334582575
-0.5744306408749396
-0.8213614190222075
-0.03744001929699111
-0.6998848348609766
-0.6502089183271671
0.8349965505333402
-1.0153701565537736
-0.8862088105867326
0.5866977048910784
1.2133979892052509
0.0456570547774877
-0.9924900089380044
0.8294591516575863
0.5336412530729565
-0.6514448813409217
-0.4024100062042579
0.8274707006940999
0.5055166623281296
0.037882362732413986
0.008085157621407464
0.5437598770420041
0.5905976273093552
-0.2610165832008229
0.13819885249758834
-0.5469708088953906
-0.000635831158129543
-0.8516401042985293
-0.2511893992569413
0.42642885331314584
0.7301104057907887
0.674638683234824
0.05815802583416472
-0.939040195729717
-0.19536061034755714
-0.8651225872040192
-0.2063138980869898
0.14649222665525213
0.9968117874889604
-0.05518304606824656
-0.2482725163377376
-0.446974932640893
-0.32837672464924555
-0.8259165439180916
0.31148346688641626
-0.36717645413749106
0.18072956630044382
-0.817398269334596
0.2936695924988945
-0.2911302243512175
0.8438429216367045
-0.5245138159487359
0.2624812307668727
-0.6541555295622866
0.41509461111120904
-0.8636683023182351
0.9356335116781987
-0.5842493395560399
0.6209633434256406
0.6256797314169155
0.313598308184075
-0.16405062188228853
1.1288247476400866
0.6249630335206091
-0.7660604232142966
0.6496837925422352
0.841525402212294
0.6742414851192049
-0.9688251148890428
1.0151487204272136
0.19147935488519818
-0.07688211898717796
-0.11252455046269616
0.9591486641145517
-0.5193219275229415
0.25099549399763127
-0.06569780228416813
0.6943489376556783
0.634032137699888
0.7504684193149599
-0.7811170861729407
0.229721369536843
0.7124574860877716
0.15998758198039725
-0.9025256878717116
-0.9473131872880862
0.8084099845281172
0.12912385555038236
-0.4007121999186707
-0.5115140363433274
1.0161225257555133
-0.7379347313805212
-0.024577746728393145
0.8273228243989781
0.9205542677925802
-0.8915670971972988
0.17499845162997624
0.4610231545612918
0.7644544859935991
0.025913822050556062
0.1637534344463786
-0.9729774510593115
-0.333823797659157
0.16325205229534379
-0.5349393535152228
0.3933551951319227
-0.5646805342636467
1.0013647554132858
-0.048848965779228294
-0.8271709904158219
-0.15010326267822152
-0.253552797827119
0.882767498054712
0.37526958423906404
0.4885739037149106
0.3270174593929214
-0.3878438384243192
-0.2244107054488344
0.3485620505572715
-0.006031841881378013
-0.32905878027581986
0.6795068233325358
0.5669755453188576
0.5895397747782405
-0.888048105187113
-0.6941941479667227
-0.9032538102357739
-0.12519829281646028
0.5601545901359556
0.12023310147698883
-0.8278328650001687
-0.012697065488523744
-0.35587876412431907
0.10886013397171042
0.7915556612221721
0.18857361575977732
0.7275012164840939
-0.11170462001643407
-0.6835059609585934
0.3617359301850588
0.24693403820899817
0.3560772489850896
-0.569674357088745
-0.658814830605042
0.2652617463435773
0.77107387465523
-0.14734273260054861
0.6938905154988513
0.059254537913811425
0.28797613023711804
0.03990710234318892
-0.39918552130637525
-0.04546121924025421
0.8616715397888236
-0.4286597250568132
-0.6150559753751165
0.5854322825454767
-0.18737171311727
0.23283159622744418
1.00828712380316
0.6165982334674158
0.43826063212857924
0.930118234708221
0.7679490754698425
-0.12386177027568035
-0.7669964654655345
-0.3013256028846925
-0.14969759567049895
0.2527234230209454
-0.5303301229512116
0.11993525750568344
-0.6981640952353297
1.0140748207089936
-0.7305557628194973
0.5043904227648139
0.6144402526905992
0.40525606405570636
0.2456624879444854
-0.043016647927885295
-0.1385526477816566
0.9074568176245423
0.25501989795709445
0.32245227304454066
-0.6888872253880687
-0.5563135748510927
0.6719378544368513
-0.2016278108572911
-0.6082024612706775
0.47761831281480616
0.8076199624787124
0.8642589272533013
-0.2855665007210746
0.5625661904548726
0.9347315305304709
-0.863542217142221
-0.3501731667434217
0.6885657831339702
0.3953494126682965
-0.7448269234204066
-0.3656419480530476
0.221165552087832
-0.6819864467762035
0.9085690489565466
-0.6910268530291714
-0.8321161854878705
0.1626310559749986
0.17490645544829342
-0.08727521199609363
-0.11734312300647869
0.9007838555903239
0.737985555521828
0.4670675615408811
-0.10125200182146031
0.8143952415563678
0.6040481944608578
-0.2527299560521334
-0.5626375202025726
0.4769324093560688
-0.6635030339159341
0.7104899668790959
-0.260449749218864
1.0322825264382105
-0.9053151061111666
-0.8871066946032937
0.7719959712457114
0.1278177089848138
-0.4740283957315228
-0.021711234526755496
1.1382794262047484
0.08657942948118164
-0.2345985841074912
0.40257433445336244
-0.48161679327061946
-0.7775841064402073
-0.0802315403337357
0.17069423403640785
0.8677031729099202
0.20007091838852406
0.211632340178334
0.6588501998963536
0.23987784236060802
-0.2013113391941966
-0.9367170293239133
-0.6276996812260757
0.5319138654202208
0.5689305867924114
-0.9533052148566837
0.6812420257824061
-0.7353251265107188
0.54927069260004
0.7436862875211233
-0.6881635713625819
0.5324254652959199
-0.19635960723972717
-0.4491484347947609
-0.254441980771102
-0.019096847546800008
0.32092774120738987
-0.1479926087566254
-0.9681165630224331
-0.17854169303111025
-0.30660535659605953
-0.27305603613977086
-0.7128696783627297
-0.6070679102150831
-0.8987184305428257
-0.32362185880093847
0.6945541306239007
-0.48912543870761505
0.774208747341355
-0.1776680780904314
-0.9604300804023681
0.02809574104891658
0.6240955376524582
-0.6600810141030541
0.32987068985576234
-0.09215258157863757
-0.3594514996211447
-0.37446727573217503
0.42946243177274107
1.0395331892416173
0.16389590996658904
0.4868454986983952
0.06226275801321402
0.7333142457227992
-0.9866369721371934
-0.7977886562946492
-0.25464961898486466
-0.07304120003904226
0.05091120795414866
-0.2853220169507906
0.23978486195365512
0.11424955801648265
-0.8238638183499066
0.1358839919260118
-0.4182035981806228
0.25821455144843475
0.4246417786538607
-0.3923433429374707
0.8018627289525692
1.2090352253600558
0.4422013875422547
-0.9449347718646472
0.0044882454728681735
0.3248124452779627
0.6023452093672
0.9186019292237826
0.18361600487214788
-0.5020724598774959
0.8607777946371551
0.7618283617445516
0.20284100424327425
-0.5012567551470581
0.07459992795235389
0.02069070140071923
0.3012732146223762
-0.39672567244415863
0.04170542256828859
-0.3754351229673924
-0.4076991421295708
-0.5996038921512858
0.36235239622404913
-0.04090354222930631
-0.585594814207341
-0.12927086819488354
0.5134785967369454
-1.1183210920768134
-0.5769521987944347
-0.40574707336606686
0.7448089547358063
-0.40862658353246045
0.47530947733042345
-0.5278444695682982
0.5806269035316171
-0.36944020389403054
0.10264535258148808
-0.940890626737995
-0.23409065843565438
-0.3393259432783457
0.16061549950243198
-0.8482159271443198
0.6014769018296229
-0.7694618691276068
0.8783949928898088
0.10221663135892647
0.4754671013060377
0.7360958717728118
-1.0978589311274025
0.6822757292518181
0.3046184964344678
0.897698792679952
-0.5940491399105801
-1.0189908773300664
0.37485902646410224
0.5710631944621558
-0.03752614762618878
1.0000602991004033
0.64971380535102
0.770234955811203
-0.45927340228299346
-0.2352924184033279
-0.03310657431795528
0.7176820851153166
-0.3212955587409486
0.7930009870376588
-0.7128929661890755
-0.7819625052431296
0.5019105767545557
-0.17855884069440817
-0.4245014616564998
-0.23779225887073427
0.04063419825703209
0.004890897000830348
-0.18671163523516066
-0.29463940624642593
-0.2793477551485679
-0.20245078414019377
-0.27249532247996333
-0.9469403436676345
-0.9849360486410927
-0.7264197481543968
0.2970157447547684
-0.9401486287510721
0.28717975709683286
-0.2685844122365479
0.2073906395123027
0.4551321733442533
-0.30046779184160427
0.4702484150583815
-0.36481592702286225
-0.7130391122455811
-0.6982295752794505
-0.47919483881391906
0.8754057237900147
-0.5852725694777073
-0.8329285098100918
-0.8314982658907578
0.5262253252206271
0.38445468523702425
-0.676284497706385
-0.1395964528918681
-0.8446195307215355
0.0327187060817208
-0.4253223620084832
-0.31791326154276844
0.5576465309369338
0.0031371566079841213
-0.42543264933207037
-0.5777820041340997
-0.6571189866618425
-0.18076929953462514
-0.957647794779104
-0.49018569809265883
-0.9082734714732663
0.357685626568627
0.02255154476312037
-0.8607733951437688
-0.7080226665967987
-1.0335654758377246
0.9144698722056113
-0.7876942251962875
0.11174187495709884
-0.6899074451855637
0.5996407222431464
-0.7994504921979997
0.2320216813426659
-0.7714955676151528
-0.08775792952388585
-0.27888229027159545
0.6507613434164795
0.1494508397789296
0.7312951643066871
-0.3443838114685815
0.8155753336632326
-0.7684660341319423
-0.5902713961405746
-0.962908278224789
0.7719581673108854
-0.17684048749318793
0.1532356309958938
-0.6636921093833213
-0.5975177694795009
-0.4455885438642442
0.7608483204135905
-0.04353772111464339
0.8797833187767027
0.18908033651105
0.31682211969927404
0.8203916893386197
0.6244442862740028
-0.013679053639815739
-0.33453786299207006
-0.10794667677851875
-0.7394744458565767
-0.41997383043708786
0.3429047308808376
-0.8855119711049864
-0.09497931651188331
0.2698788604067071
0.6953846712561562
-0.9772566488531101
0.12027340362451772
0.9710816881444578
-0.8042689698125448
0.8343550972997544
-0.9758566667810111
-0.27765594118373815
0.5519936683119783
-0.13509526838906932
-0.6922134800227514
0.4053366729888737
-0.5344933221015291
0.937674841928645
-0.3956782590141013
-0.19714719206740375
-0.5666427721524044
-0.3945668022139949
0.14997441594666966
1.019350581015819
-0.0006787717521122271
-1.04414129265369
0.36740868286908906
1.307844160010828
0.7954593089512052
-0.6701765315591431
-0.8810574308427512
0.23910548744161134
-0.6149115012752017
0.6986834880910701
0.9781774238622377
-0.5225709884939123
0.2759699365813695
0.4332701251051625
0.6535306600280566
-0.856006150613829
-0.09493740970714674
-0.6585871837508938
-0.8366354899227806
0.20980473971066407
-0.061201544260263495
-0.42190187253361927
0.1864542505366732
-0.48130552342173727
0.4070136103873359
0.15287211132578662
0.16646820078042016
0.28608608585499123
0.052543213492492434
-0.9175086172301062
0.6236226876688673
-0.3109207120915813
-0.4054834511718051
0.1211930239822782
0.5038789399949699
-0.4072321177537473
0.05868849431026934
0.7879899022109652
1.0274277239019176
0.9479943964257089
0.7695717863105648
0.9832715836513193
-0.5990285955985876
0.5367242671501492
-0.8086470385749953
0.7315496383529649
-0.4395737440528004
-0.557651926654519
-0.7171553224811036
0.6149800919669076
-1.0638359293802864
-0.6079807877274279
-0.8809606406776035
0.002798925235440903
0.07653202373113731
-0.346477772175815
0.04196953350309103
0.464719033761065
-0.020998498735029562
0.4476151968461671
0.9113852818607848
0.9808295619545474
0.3862020073797677
0.8408432342176831
0.2973021975796923
-0.5111811488338895
-0.08426641412635992
0.5082942687316583
-1.207133963071754
-0.2871289405026371
0.23526663492161565
0.056254144312404504
-0.7623527764748025
-1.0259357392441548
0.2617172716326137
-0.8351156683943375
-0.637616762345373
0.03971152862109595
0.8630621371842283
-0.8573675630602651
-0.3467392497278636
-0.3537781358912122
-0.07479195320381
-0.9717130287802062
0.9633690189892369
-0.7652032295185531
-0.5654326201815906
0.7305603774176206
-0.9872328798637966
-0.5094496662757514
0.3437690061554502
-0.9504271915419363
-0.7275127896741634
0.5564995756328021
0.8065850113223155
1.0833989455033237
-0.7161611876827415
-0.1255653413443674
0.2688065866132691
-0.11382866976677479
0.15383279095736926
-0.8504061504726506
1.2069174924314992
-0.46370023789809206
-0.03783011408561269
0.033835056682605676
0.8938376235023688
-0.6123195615981899
-0.021895135198703845
0.4931096547130377
0.05450874403174418
0.34373105133773474
1.0590233571976617
0.6798220574175203
0.35474772572208685
-0.07677926280421492
-1.0253873361994517
0.37591335465592896
0.8329661825942145
-0.9933201533609521
0.5247431424001994
0.2072407020471856
0.4800512433425453
0.6530433569243754
-0.5674818349135181
1.079190240573901
-0.6912134554266954
-0.04147368340825888
0.13711529642583814
-0.016075683327550782
0.3893261029893095
1.1657498007309373
0.8401991374472937
0.2573792771452548
0.9555767781335869
-0.3225224807263758
0.2895893976342335
0.6776873633604177
-0.20082672007925023
0.34277895997134195
-0.014910157881264163
-0.26407167045368696
-0.850979960793271
0.7949073965481732
0.39879124390976894
-0.8382295609260317
0.13020115923726738
-0.7714528698929203
0.47310755934073895
0.72974376830482
-0.9369104560644628
0.2511954097823494
0.7467987893730058
-0.9262398945861396
-0.5086825843848294
0.9969374240564262
0.06886284806914024
-0.9358486295522582
-1.0564073973966772
0.44825773912060374
0.6381583737688942
0.6688052280601279
-0.24030736055653976
-0.3947436581168547
-0.41468660742006375
-0.052217477912816654
-0.7794866400398319
-0.025237202339849506
-0.21393438170019782
-0.6992821036246608
-0.17803137651369208
-0.07772321406324106
-0.3496351846014105
0.8626019774071703
0.45878701816166073
-0.6579624425780345
-0.8204662478785187
0.40347019279621393
-0.3709168694597556
-0.8456146652238661
-0.20335485774847709
-0.953267424010577
0.14347602126155723
-0.7046419889098433
0.08954035171084515
-0.6997324082997092
-0.8313796688986834
-0.8897925967011978
-0.9136382169668475
0.3202276753784264
-0.9498232916141542
-0.536570501247749
-0.05787019918796484
0.7802028067092271
0.7336726072803296
0.9600153130209814
0.38443681616789777
-0.026305646933926893
-0.06570432912051942
0.8203919308042843
-0.4058185679532073
-0.10085998076702661
0.3698861555018534
0.5748428230210081
0.5749415398951379
0.528044791355065
-0.3239781594170121
0.669606408314487
0.41824512581702894
-0.8808820801038647
0.847427828655061
0.6401526916978437
0.5132171789513231
-0.7930649885576819
0.40783809407449717
0.7123307147234225
-0.9199181443065265
0.08302513898059238
-0.7780552450132086
0.71382263776158
0.23608955684581892
-0.6516077110939932
0.5697971808642353
-0.7025480356575008
-0.46587866931381544
-0.7120471498090171
-0.4900024191369069
0.06893245752616868
1.0304708425198588
0.39416760742483464
0.4915687307762954
-0.8712280672957727
0.2942785119392987
-0.09178794266776359
-0.3898545043924452
0.6406703393170076
-0.09596280249680197
-0.7902200346435758
0.3704972771500556
0.6350261759877315
-0.4830027382553723
0.7668290211578012
0.07391468479969492
-0.8070177871682844
-0.819602148628479
-0.2528579280293577
0.4292669691848031
-0.6269486578502802
-0.22271912843916453
-0.7817808546348248
-0.346999843870189
-0.05553366353519821
0.6432758356579911
0.051609157744067755
0.5650112859928151
-0.7391241750568793
0.0800183244694747
0.4600383561957961
0.3532889412749851
0.6935475037353207
0.3170319362592875
-0.0020642040585391297
-0.4852857933011378
-0.24643969378950084
-0.538594933432681
-0.7265788543023349
0.9518524775004734
0.4967951279168103
0.3457989479901037
-0.5068675036821504
0.1047062744793648
0.7726045506084749
-0.2895974397884287
-0.2759953433466704
-0.8030606217684344
-0.8272039178591785
0.27657411526652975
0.7958657618466237
0.08433530026436795
-0.8071142848960648
0.6465888470861362
-0.2954100880053463
0.019094982402159563
0.5952388624394324
0.0638166328400047
0.8057680025877374
0.602942391675914
0.20008374812684782
-0.7572642059858169
0.16315220696352098
-0.7031960357744397
0.8808910846316612
0.03126539755497142
0.9653777805159108
0.20772177109377263
0.539254002997719
-0.5531907228376408
-0.08718775197518605
0.6772975501794004
-0.4157012783768025
-0.9140898545422526
0.24830519376889007
-0.42454503334851834
0.7424039146100747
-0.7222757101265039
0.4314830299173534
0.848668528518766
0.10556768507852486
0.14763700259389556
0.25851813604269636
-0.561463376237184
-0.9808875825245017
-0.20582854887613397
-0.4083580711456879
0.18355122616955444
0.22163888431642245
0.8198725073845928
0.5883958358129528
-0.01584194134861226
-0.6549659985435624
0.5511251997410541
-0.09714779999087439
-0.8069726475458934
-0.5174813713147401
-0.8671407340810987
-0.7787267218752735
0.5765332805055565
-0.9065414559635813
-0.43287556465567517
0.16007559221035658
0.039388766461179406
-0.780502699725174
0.5882650003503087
-0.9195065020639414
-0.8847956333283566
-0.06319596409169369
-0.04891471218898147
0.8830284160945847
0.6009736969031534
-0.36253105721358414
0.7752939979187471
-0.41086384426972705
-0.6923245013191514
0.6007115121240965
-0.9671489148930139
-0.6854527607302834
-0.5430677443275469
-0.4548747663797639
0.6286923726926356
0.7234622258968966
0.23851130770089043
0.019246961367042646
0.037267737513963416
-0.7072819707583692
0.5888698183146988
-0.17925193371041948
-0.9726913278994977
-0.569238350464511
0.8683828096739074
0.395124298181648
-0.656517666714915
0.0350972067333589
-0.36727576565168696
0.47859543090460727
-0.19420365574107748
0.6081715893470204
0.5168421986706604
-0.8205576540354022
0.8626684947229107
0.7097762987616922
0.2014196304092161
0.8265228476449559
-0.7873280180819784
1.0052407897028588
0.4823277281756016
-0.15902131619865337
-0.7313515565290998
0.1615078259998962
-0.3547809820348011
-0.6062924510828388
0.7970733264797601
0.69947202497055
0.5176292033352262
-0.5870539025174215
-0.701519602377112
0.5349498024164002
-0.0922210801328057
0.8818700017377639
-0.16305485871010997
0.8577120918513039
0.49154242709046886
0.14829362328159762
-0.053693391257539955
-0.673315446924818
0.40978671143796236
-0.07879156913108001
-0.47399575712976605
0.4326129236175468
0.38570237842380506
0.26196163744008805
-0.9700747784798497
-0.14109094281185441
0.6633874509454079
-0.5512514722668289
-0.8264007660051572
0.0033796859134688946
0.9229711471510941
0.36442387848067515
-0.24101935794100893
0.03932443895714844
-0.46553727354236274
-0.29487957138608956
-0.7511142516086918
0.04056140816949882
-0.9090030846156993
-0.6237101133184005
0.48814474093575083
-0.34478424819866244
-0.3095402237242881
-0.3474637935663243
0.23915085399026167
-0.9262893606422469
0.04065543644412271
-0.5567369981562996
0.8755894701690143
0.7272173695598881
0.35191694322302913
0.457017035573731
0.759375166696692
-0.4021567393596267
-0.6855641256822256
0.08573500159870877
-0.6597115265133081
0.6203232104846693
-0.7219729921048993
0.18432465729800496
0.8712454121925276
-0.3149202726430429
0.8254052025755864
-0.6544127542650253
-0.751964004357383
-0.34554413634586656
-0.7501305995895075
-0.25793405941191727
-0.45304922368787004
0.34555398241305846
-0.5235387221093906
-0.9722110965088135
-0.12311414526361746
0.28292324088932663
-0.028978833993630698
0.5929612662685638
-0.6087854842283172
-0.06750557908290536
0.7886031343052046
0.8755336743854543
0.9090091925867726
0.48503062351500964
0.8213907959167928
0.031092740678116838
0.9148985773135372
0.33263684293831697
0.818595846565461
-0.5450409561130469
0.7900995009932105
0.6880231898995582
-0.10761083781249411
-0.08918764814548254
-0.7950787523593158
-0.09194326952946223
0.7102884560878386
0.6746662628504543
0.7601691447351874
0.9481476129899352
0.34129798598759997
0.7930458151708805
0.41834896975896324
-0.48004891804669186
0.8196851320253269
-0.6201761318798441
-0.900652741128022
0.22607646751692217
0.41735575374453815
0.1846175691206033
-0.19232616315476397
0.09305815805827593
-0.40386954478678755
0.32907433933927444
-0.29233184327151457
0.6658904934080713
0.6887852423045466
0.7231765597123991
0.3789650111277842
-0.08204856363835168
-0.06748179515548182
-0.5890744335065872
-0.15830775687046827
-0.11044858369551872
0.36284679856461977
-0.86120047410961
0.9863241517226673
0.27938843534568153
0.44884168763992016
1.2509064701303887
-0.9122303433301509
0.7868342456176375
0.6635053999702876
-0.194309642315688
0.29172033393644065
-0.6956464278511904
-0.8354206294846638
0.27461190369411587
0.7483814695916362
-0.2550715229998895
-0.5635388387456506
-0.9427525716735558
-0.8290749896724954
-0.9041061653104642
-0.542339574939671
-0.9013891554942148
0.13229200412522604
0.8724956107070742
0.7411007459700568
-0.5081093498864708
0.3330779313264613
0.7611903798654144
0.03842975596362424
0.28595174922449024
0.45699218230189076
0.8407966046916939
-1.1234678407907255
0.24094205035777042
-0.6302793132916212
-0.6016882886427143
0.03843519867680544
-0.40914926405286967
-0.8563248423168851
0.06585984958566501
-0.9357303436999675
0.7896287697549926
0.055075928264835365
0.18930813363514332
-0.7588121093871184
0.7433745324417464
-0.9793935549060613
-0.43799993214006183
-0.4688714376174782
0.20395171028634246
-0.7453769623495237
0.16512562051714752
-0.6758772197224897
-0.6493897893998875
-1.0547131465846924
-0.2353353656044568
-0.41033681010287043
0.9384840516664883
-0.35846544692394205
0.6157485959042218
-0.17485586543759793
-0.5807363632701329
-0.3859096882648431
0.256269467536046
-0.4944944421671027
-0.5899239347308913
1.026335635629945
0.31772371347533745
0.6258872580999872
0.29680915032515687
-0.44355308339568583
0.4823714704456062
-0.9152619354787415
0.0054765577787611285
-0.3037967046113459
0.5337464872303325
-0.5919812134005508
-0.23376848804478972
-0.24178749180748493
-0.07076254520539645
0.7615574982059988
0.8332368312741896
0.19222611230670394
0.3327383167883936
0.31483047333325986
0.15535044153983435
-0.11926044822611526
-1.0595220243666414
0.6959145394888204
-0.23671744033780473
-0.318481736117566
-0.018453470104116357
0.6440163950578198
0.1749647727562219
0.2095497309886347
-0.43033410382469467
-0.5014880421175382
0.8940245326417398
-0.15363236288609627
0.6995951606119405
0.358125730847311
-0.0012458204978261405
-0.4692311118463984
-0.6627028621605053
0.8962808101541204
-0.4017921198592092
-0.3212109940015358
0.5139065341808332
-0.038837518119266376
0.3100438528537296
0.31047837331078415
-0.06757433786650381
0.38101810543295916
-0.19131711668723161
-0.12722695610532153
0.6726563155631852
-0.5396984371734157
-0.17741158500709023
-0.4121701083209989
-0.8197564583921774
-0.19825581803281
-0.524736941838973
-0.41030408195248136
-0.6369284865798847
0.5469422238699961
0.7004491265810745
0.24621805001818553
0.27630382379384083
0.3910449201938742
0.40852328921980924
0.2332982222993399
0.13184015589702838
-0.2612684054296034
0.08951365485771842
0.8972956876187227
0.7350053222763656
-0.6548066798307107
-0.39467371869528645
0.18274840874117262
0.13965613706301416
-0.5826025205926525
-0.7219132687767729
-0.8538799682411722
-0.25985478145041885
0.3791605634896299
0.21726743679634744
0.7403351983957849
0.9801124282851692
-0.5978585326744486
0.04130384711323445
0.17713269346647706
-0.2889754294002196
-0.6806532579101691
0.07599602548926503
0.9640301951144615
-0.07769545863246248
0.7712232597095671
0.2919034368704936
0.12026553792675836
0.5021781303120787
-0.9243180416715321
0.628503705150301
-0.2943736696825007
-0.10000397364887675
0.7705049537769811
0.21012746082535072
0.8509909702370357
-0.3480342401699228
-0.1622221088914849
0.016080263095312398
-0.7931736634239273
-0.35340792201292276
0.03565756372902744
0.06207922384474877
-0.9107088007272783
-0.6255414475446616
-0.8064771350069203
0.2486504136294863
-0.5831298640436107
0.10293666377666132
-0.4669133574216705
-0.5900209064335679
1.0055833075793197
0.9971120077203051
0.6019540834396463
-0.4000538029021705
0.1670859748555946
0.33658971613807925
0.06256704343744673
-0.18401333959284905
0.41210917621294746
0.3744067746478112
-0.978008593249187
-0.7283624035867601
-1.13280865402178
0.5443389792919346
0.6980009920527852
-0.18062843065813305
-0.8004002892876608
-1.0115626270735285
0.46512256681832104
-0.39547909323506464
0.545788982224822
-0.4896607078681708
-0.004626045999819436
-0.7470625766693529
-0.28888604944893065
1.007457254122289
0.8015985783221131
0.29486794720629717
-0.12257933844543553
0.7115037720090069
0.11379771999152782
0.327565761003122
-0.31264273690416433
0.6265924144175162
0.5901495395887941
0.2825669323128673
-0.7523465853372778
-0.9462442908671326
-0.9675706871757335
-0.8457884900024845
-0.9880016222041275
0.6337257390618438
-0.9490724576538841
-0.6926329673427827
-0.2749939208915462
0.7157377836971437
-0.1168869451475388
1.1033629069091409
0.9784641547166697
0.6709079368783891
0.41601831957782176
0.0512002118978404
-0.4123576556244267
-0.3837103347579148
0.3118005460575876
-0.04870681255366064
0.23307729854698586
0.5953917695403461
0.2167353670509273
0.47728617409026985
0.46753757291475695
-0.32734042778606554
-0.8557601619582225
0.7143082772823272
-0.924134900915921
0.5252625998088616
0.0690766408976394
-0.9190685896423816
0.5023326226871736
-0.8082767501058219
-0.4655011278223803
-1.1592940891796333
-1.001838656982285
0.8490297795823504
0.41482842929336655
-0.18922400768604453
1.2040174320324273
-0.1115300737090377
0.4720288836378885
0.40470054252976323
-1.2458916569739469
0.7709980785557244
-0.6439361500467058
-0.022703165286146347
-0.31814492096418306
-0.8814023301551673
-0.26377307695157615
0.5094935265084554
0.6303494050836849
0.7847055753940861
-0.5026119001332671
0.6932749655399661
0.6848362248470699
0.8606160699436699
0.6432985880699806
-0.4515687681924352
-0.37845263729206025
0.5199248962576279
-0.0952046163902178
0.47511721395886697
0.16891314076478184
0.235095380629295
-0.2310811412735133
1.1298725154488576
0.2771151411773656
-0.36403440414811467
-0.5650274260266609
-0.9979706272874848
0.02284694033002295
-0.17649015676154714
0.7308674748492305
0.4668099268400922
0.2591329361170502
-0.3059885401968101
0.6719255933902856
0.45950135086720173
0.30378028478818314
0.4508466136923221
0.7610177682917145
0.9112593800859028
0.2856282974794017
-0.8046861801171832
0.5381023043500336
-0.5735109682129031
0.13402095923818177
0.662696685771684
0.34968601664537097
-0.8301662428881788
-0.6199341539030557
0.5809344923089578
0.1768599446747512
0.7960754124823373
0.972976090667444
-0.005581315218028145
-0.1384712901680421
-0.15252389846190795
0.1464412710457766
-0.5320692912468666
0.4082759568113101
-0.5753607066417048
-0.3355425064583462
0.7601238693978889
-0.2909171227444332
0.6859464315018975
-0.682076219969623
0.28772928949946697
0.0396059604037817
0.1907869557788874
-0.23930578093227095
0.0708380255471884
-0.6846630787829556
0.13864077774223368
0.5434027365529175
0.9513661477667648
-0.6969303970829005
0.30046089345085564
-0.06921036438307392
0.9951286630691757
0.8669838760034349
0.38106317955623015
-0.8072924508043084
-0.2706249724985293
0.17569720964327562
0.9391807109892392
-0.5065290950195052
0.11242004405384742
-0.17205214232864569
-0.5761018199205444
0.1806272067243379
0.7480665325189974
-0.8437775133138534
0.6817847386593014
-0.2992527735022529
-0.08077059218284977
-0.44229192784348204
0.5984762289372425
0.05295897687192959
0.8237026835324275
-0.938405601315053
-0.9628751167343772
0.281968496653212
0.13636285461284736
-0.04265838739581432
0.8260447503541708
0.43258145054376557
-0.04540107818751236
0.8617349377390688
0.39299991083073926
-0.2725625013528748
-0.4571261065437057
-0.24728859961564897
0.8004655041900968
0.2780438301197682
-0.054253291484386214
0.35356137119718806
-0.4929351116471553
-0.18458491398387034
-0.8618681574073993
0.522445150741784
-0.671009729304262
0.439901325719491
-0.8036721152883128
0.880705184656441
-0.8567381202817859
0.3049895738406892
-0.7935866894457845
0.5625820556093774
0.5950738534030225
0.4098750665359005
0.36074707815976786
0.5417580353765236
-0.24793214712066347
0.12441341756888577
0.03762264140953893
0.0841413932582757
-1.0071579848209482
0.7363678705425577
0.7833042820226758
-0.9421716323632848
0.542846998288694
0.4764807761803946
-0.36455715094873165
-0.7682068559075915
0.7086800695663678
1.2173688410913843
0.8637552873377068
0.6642079874715533
0.9064281489166407
-0.28069030120720107
-0.03802222210885379
-0.8496522201858944
-0.8711468906765755
-1.0519948561524863
0.08320507812667242
-0.6765851464314998
-0.9086252437548262
-0.3265055250445855
-1.0014593386532495
0.8563618768821624
-0.8578702238037087
-0.7996420643320206
0.192217954809742
0.9649344171848382
0.9624111421127268
-0.3891025233487062
0.5407769836757346
1.113256523949386
0.08769728916565585
-0.41079840237573456
-0.28732871471199656
-0.625715441905305
0.9311146119264155
-0.0954430086739253
-0.06136039184789287
0.9094517294625355
-0.46650411827267974
-0.03323589070879912
0.12824150875768162
-0.9756040355595832
0.4990037356668777
0.5448890041618805
0.18316169187748066
-0.021651280725171917
0.15595838807725357
0.9341287352777805
0.996535664307115
-0.5614077104680248
-0.16454873466417888
-0.07966399170092732
-0.637335166605106
0.6190830525769714
1.1577060296022594
-0.3592389571483322
-0.579526488744423
0.9703453641205763
0.4207601316971612
0.2345741559546782
0.9201758308674158
-0.7609111790410084
0.3812756257065042
-0.7446855315081322
0.8421714388983178
0.1569426445515589
-0.2568334704259851
-0.9689414882727467
0.05891948974639282
0.37029824470575434
-0.3548317134699161
-0.028231473916674375
0.717191610538695
0.3183228613228124
-0.6843556636051321
-0.17392643481018033
-0.712979769066938
-0.4003111244373869
-0.9164665210971
-0.4094977080021375
0.41147842210396735
-0.8124188828040046
-0.39052812486481336
-0.6456045417466204
0.15586206874443595
0.2179855102450117
-0.5357449503392592
-0.2480974288640365
0.4057223594732126
-0.16238408134624993
0.38320440230250125
-0.07908553391854793
0.3859630111782425
0.36035577877093805
-0.3277015647433513
-0.3755149714281211
-0.9858782966168912
-1.1685482588745828
-0.8281372999747851
0.9939625340724885
-0.003930157317918196
0.04954979202469461
0.6351115676319166
-0.582135511231052
-0.8349312593270085
-0.20959574241910567
-0.9276416504250063
0.8299816482637657
-0.8213611437354766
-0.8179535340613552
-0.5619655661295131
0.43813798487904976
0.25440647710631487
0.43553520048726735
-0.1824150280942026
-0.08791719998292984
0.35035509614754695
-0.08211767053686489
0.9764601800291298
-0.6785160955305944
0.04777216259809087
0.5836635179004661
0.9334006799476688
0.7961650243480797
-0.6211090176603785
0.469403163130118
0.6350382617115174
-0.23221477761645912
-0.6215181461675146
-0.09355819023691946
-0.10574121625394323
0.4462101611905369
0.6724055025531763
0.013396169054380517
-0.18448043135259287
0.8087961594069916
-0.6810394061988752
-0.8034877501250994
0.28028777785643544
0.6525366529333916
-0.19416174645874212
0.8130967960219442
-0.657910326598087
0.8296888645700348
-0.21895248939537523
-0.29735083135882584
-0.46022256815844603
-0.5740453441003812
0.5992837556009438
0.5609496173018508
-0.6123912022839884
-0.22323870998085812
0.8689154301542208
-0.3891268054923777
-0.7580598402527047
0.24080827599045818
1.0112188179858494
0.8164518412916634
0.3977536258406833
0.9295214007936081
0.85183920195372
-0.8165233367796931
0.3992724079989493
-0.4965799643279313
0.8513165910882278
-0.9436988045754573
1.0539034144415964
0.7423236748416496
-0.17121870981485796
0.48518010933451367
-0.6490416501738754
0.7784721406579294
-0.4200009600163916
0.884411723328605
0.34886427033773204
-0.07042175090617843
0.04509506482237512
0.844588814056865
-0.5009746162892025
-0.17533935412185178
0.42678452864039246
-1.0226588565626735
0.023289130839623876
-0.9350064116326327
0.7392064350258544
-1.0933506007244063
0.7189268633276883
0.24304695029664644
-1.0051281304034156
0.8316882883323891
-0.42695611754542145
0.39850617865047105
-0.7462910824232282
-0.19440079233696306
-0.02708267588188409
-0.18460160409995274
0.5482498931001251
0.9414757999362244
-0.952118547233414
0.4002693041680283
-0.6229851610281676
0.9492733481913738
-0.9318569958531282
0.8298749449197727
-0.94552168281008
-0.008615077629126864
-0.4211010248745384
-0.7631676815998419
-0.3291578613892398
0.2790791851523012
0.8697391786308821
-0.8605850797903974
-0.44854962488458855
0.42795260956000236
0.9436447011460178
0.9743812504856152
0.27416034701174485
-0.8091777111131492
-0.4008762163696493
0.9703829948415702
0.8912231346232764
-0.02413930176932759
0.02477340308603754
0.6141922395770878
0.5013595744737761
-0.6067115454781122
-0.04265588073099815
1.0242334034178628
-0.19268215041514455
-0.7365036747503704
-0.5899941737908035
-0.7872164362012071
-0.1769272522270806
-0.9213513636576995
0.04824417933101336
0.8163812836693849
0.4894491133794489
0.458704609764158
0.2775167574483409
-0.49638033295176714
0.27890206472058104
0.3780347894267717
-0.6644446817998462
0.7062863087039505
0.9935300391145255
0.07992808024784695
-0.0948210855688406
-0.12091051220082183
-0.11874102109134999
-0.6883443093760913
0.047405862205686565
0.6264251904901282
0.3113611197155597
0.7426288988507326
0.633839540369705
0.8900371242250488
-0.8653485342482005
-0.6052396302006532
0.5568384565901738
-0.8929071588676971
-0.1923083669013709
0.3128988027981035
0.9904417953587281
-0.6084102728643397
-0.16126421922893175
0.2796992125660217
0.06259720366150394
-0.8672303678713659
-0.22110478778399528
0.5287976498015025
0.3895958184846435
0.19311050355984963
-0.07278928447563508
0.9278137775977199
-0.5956689888793054
0.5645708524886835
0.3657006386127709
-1.0131966063800586
0.2853880926647494
0.38338920800689474
-1.051914963068456
0.07443631397736857
-0.5930155849026024
0.6247774166488052
0.10640031312075847
0.43377002535176273
-0.9511771064795691
0.19855392318769205
-0.21473145153671128
-0.2159308348730483
-0.5618459403845055
-0.7872188791704512
0.6809094806823236
0.6095142891949697
-0.20087492961217956
0.9685549916741357
0.7946839617918768
-0.6638871449989598
-0.3508653196674631
-0.9979312511989017
0.8554498733584531
-0.8657838234496184
-0.10696218537213109
-0.2485811303674162
-0.6510259096519734
-0.09897105003705464
0.4395976726421558
-0.24028109657813945
0.6478807595522817
-0.5421722725992549
0.6620806078776931
0.9847238624018688
0.23515843889513116
0.39284124534124365
-0.6747385902440738
-0.10171721360104001
0.861806870282154
-0.581113810991533
1.2912445681217788
0.9295575600181706
0.8535580275903912
-1.0411440573678317
-0.9581165488744477
-1.0720914473309024
-0.8909644588160691
-0.1894698220560563
-0.6792924747277235
0.7417617418414745
-0.6272240915351874
0.7509900862127452
-0.5522450952268384
0.3520635659052791
-0.27216959707833266
1.0245915513524475
-0.07053604420785155
-0.8705184113447035
-0.09792709278932003
-0.7969853503873501
0.7081502230267591
-0.023193699859196455
-0.8910703767951048
-0.7697369325770557
-0.7024854434395498
-0.15130097082239577
0.6730345261297006
0.4311384361112124
0.2202978323171671
0.49542196999619814
0.7911959790098235
0.025695983437416282
0.8775627547375651
-0.7873540945599962
-0.5407647379012338
-0.21610506829066956
0.552905345247991
-0.27399790098768817
0.560282618933614
0.35123242088693357
0.37019757622354366
-0.5512924149122448
-0.9555607787696685
0.24618236766326693
0.10657728970127207
-0.860339242281461
-0.4691066196468128
-0.14943319285794088
-0.39929548960530825
0.992001224435299
0.468573300104915
-0.293716138264134
0.6072805717311411
0.5274494218904725
-0.250514576901694
0.11102411160930697
0.10265534080091067
0.6723217157240555
-0.024494598537677152
-0.1642533417196333
-0.4021730020970217
0.8502173949283989
-0.3716246884746584
0.08807797896041394
-0.1791724504618508
0.6928266575640466
0.27521476057975625
0.32294988545878706
-1.1563394614454527
0.43900520320643943
0.4885341956065404
0.507197034660259
0.7688861872251884
-0.6150462292560297
-0.4133958665505772
0.67018770043005
-0.015178793872810523
-0.4087917080730955
0.10018047400044555
-0.3464094499283231
0.004415911013252068
0.11722270286387103
0.12916805912509716
-0.6056442395011674
0.1715107026410853
0.8265448358131526
-0.3432289825082036
-0.42217100624182496
-0.7999864952739967
0.26929747875511434
0.38586358419234845
-0.10777369422270333
0.8417567406205171
-0.0319603672615887
0.41584531190157686
-0.6676680709944793
-0.9030188647803632
-0.4808011310256437
0.9087197496957418
0.44807476697783294
0.566132014723588
-0.9979773595162391
0.2551600184794489
0.6932845213009187
-0.9017383057788066
-0.29535428877268405
-0.2901084183019217
-0.5544578979331196
0.7968818996466801
0.7320541599758159
-0.8594751393044703
-0.976557125950667
0.35442681334495685
-0.447104196994441
-0.6733891489695147
-0.8921356486184787
0.9763580387546489
0.3930149860977242
-0.7033495577498244
0.45625733489473075
-0.6295434742411643
-0.3365694306685239
0.005840197892381663
0.0018709337208106557
-0.5315032647075562
-0.8956097699983696
0.008327791965860852
-0.22793995043784318
0.3213542873957217
-0.3273232942460804
-0.5363764973732057
0.661442407899206
-0.9412403245308325
-0.7782960524761124
0.4629372295611425
-0.8984852760813832
-0.9555556220633742
-0.3593283999084404
-0.10014904834912286
-0.15322158301747899
-0.25704608932072204
0.0951009546784797
0.8791082222636796
-0.27533267021106134
0.09348109728575077
-0.039896779742029466
0.0940965961832792
0.10608000553567834
-0.040037509757534354
-0.6503520775462522
0.46260704200368663
-0.7911036614416331
-0.751069374252097
-0.343760743178234
-0.6461353526168087
-0.8842647974407418
-0.25538551581122304
-0.17525989313826262
-0.6512910027413523
0.1103012072135032
0.6596592090062301
0.8836897524947255
-0.19909924535784118
0.9087971096777764
-0.5193534441444728
-0.5303685974963959
-0.64585578805141
0.47289858417817665
-0.5358233392523419
0.36737354566374636
0.06856375008089502
0.32474640871732274
-0.3900455776629628
0.41152301125213836
-0.4550354642223075
-0.8419638602037182
-0.751685346637803
0.7196346308420675
0.7547508486439201
0.03833674934692832
0.6143235645529148
-0.13694563608553967
0.39024041195142517
0.3054725107708101
-0.7825846036619805
-0.2744125812084813
-0.12301906299033372
0.4519478910956629
-1.022004016715532
-0.9909991817416997
0.5861283442814111
-0.7788531640704598
-0.13695408521428548
0.2953225671509654
-0.018915212534082432
-0.35480675761918484
1.0781432105945337
0.6117154792509362
-0.7073343592965141
0.1394158855115458
-0.9429801977300418
-0.04038285628540827
-0.3841657564518141
-0.9566796804732318
-0.7742879889698575
0.7871627392668726
0.6759122571970982
0.5292587626646185
0.7047915920801469
0.6589700616753578
-0.33528074470662994
0.3807730835336257
-0.3623894512148724
0.5463741956222804
0.09413124184135259
0.7400664255236288
-0.6671830957608094
0.4542323749765351
-0.3954306737591142
0.5674133212150844
-0.2949254157143551
0.43863917091347376
1.1179344969402376
0.8172764000645354
-0.7434718848511651
-0.03589701279095107
-0.3792550042418016
-0.10571408774673624
-0.283226012543829
0.3608790853511188
-0.018954428364373
-0.651024194989916
0.6924057385833255
0.9687957306905248
0.8860145038896042
-0.24670013489505802
-0.6200690480855365
-0.4959730092852581
0.1063281097525306
0.862247230748256
0.20204599974657356
-0.9332138170543899
0.81335245113706
0.9106238677686969
-0.9443651637262376
0.38180731404522567
-0.6910632458565699
-1.2288271261473904
0.3254769424055894
0.03265469003331677
-0.45822482616029186
0.7768516499615001
0.46584704899836593
-0.6431760554217272
0.36119790443198824
-0.18107996264060938
0.06771380865650671
0.6373428617693505
-0.41309107827571884
0.5698458068635667
-0.7849977971299865
0.27134091023215334
-1.3348997306225674
-0.10108650832721461
-0.24579971946295925
0.37163108881787627
-0.23025711736748533
0.28438084488482207
-0.940998323375469
0.10712363281416261
0.7069910936183291
0.23484538029213983
-0.7203050663187806
0.6259752587455584
-0.08697172594143837
0.32942767734143136
-0.1829445741533076
0.4527336076821588
-0.941118664746424
-0.31946614645364246
0.5772256731944384
0.641088978660858
-0.4611460319209841
-0.32598698235054785
0.5824645590872943
-0.6823098530895457
-0.04198088656613824
-0.4503551701749703
0.838130508833189
-0.29240028728869233
0.22994380278047674
0.9328077381876366
-0.6450349515259829
0.7930480322802116
0.7371316427545036
-0.5505379865453368
-0.047339708796593286
0.2470621729867164
-0.08364341089891326
0.026684365624963055
0.5125432470432311
-0.4353892763806591
-0.9843972249609484
-0.3603009679805322
-0.42948436797413525
-0.5269856721764336
-0.24359480068837588
1.0187192614219436
0.731263878139976
-0.37053965436733954
0.853336696968311
-0.7058500708022067
-0.16947460100361925
-0.2653354291344091
-0.19794359290802435
0.7793757095138679
0.1579433592088842
-0.7364635097255309
-0.11455154749069917
-0.5439171177767079
0.4538797509268088
-0.652527345188019
0.45567562373674053
-0.8117242486222944
-1.024504488584695
-0.8097680800375824
0.6676014217709937
-0.38496109287804464
-0.4383085503186555
-0.3668078689433436
0.967975375930779
0.9017082256628811
0.09092473767629611
-1.0216275167104458
-0.3158362233506069
0.5083489677467784
0.7706518339694413
1.0299656250326648
0.3200435466680895
1.0327202710354717
0.6540914042961958
-0.37644690267513325
-0.9631491758474289
0.964300528885431
0.07282127368637645
-0.3952589670849012
0.06889745272160273
0.24715046138612543
-0.7200703852871614
0.1362260317602162
-0.41276305583557604
0.9548953286801277
-0.27783283738217907
0.7202948212165852
0.49653769028523054
1.0012053466822952
0.027379878386990818
-0.9953040862269578
0.21388744223055786
-0.39222144379400337
-0.7231629040145738
-0.8077592729346803
1.0271625364911654
-0.3377699485876116
0.14356391096456111
-0.26450036059597565
0.7498417049713415
0.6379702350802104
-0.41205541770508347
-0.2245946966238936
0.8118487054984875
-0.37292218105759734
-0.15081855822573537
0.31166664922667675
0.7948658256931087
-0.4981204674699434
-0.37229095099200665
-0.5851702106271768
-0.4581149533003385
0.35720259498584817
-0.11230515144444692
-0.005769549093346816
0.24013801818458902
0.435089912846296
-0.9474606074350033
-0.8602055469600479
-0.8560837207522299
-0.8220857927370354
5.3219231254170096e-05
0.6776249435350459
-0.18020278791732564
-0.11222841611228151
-0.6158298394261291
-0.8988103706677816
0.25920920324885255
0.8922488527475311
0.8082846548962711
-0.46019119706806794
0.7192084922493391
-0.08016307490678723
-0.8308886055654658
0.9088108694224686
-0.41105361552946657
0.03501325098165261
-0.4330842585799089
0.714186639439461
1.1630958520581471
0.4576437395939607
-0.265289930433943
0.4543753769471996
1.015668593482679
0.10424065116706897
0.7313128777422622
-0.5116129182831729
-0.6356279543075015
0.6083502241383192
0.35901454781110287
-0.7603790523919358
0.5086449611584482
0.13424710024899109
-0.6802155490397551
-0.5365207483470384
-0.1542394099311263
0.3342005302577939
0.09576086384575239
0.8016934533057228
-0.05483909459047122
0.24520099093993386
0.1261849650501524
0.7792126265426333
0.7652679145443264
0.5749295962481878
0.02046122912595278
-0.13528687425585634
0.8527800064849407
0.07792304449299647
-0.289453351567822
-0.6163747695163652
0.5161500310246463
0.5705118305119763
0.31490684650044964
0.6972169159675269
-0.6800109482554877
-0.6715658770265797
-0.6208873693760806
-0.6667303990135244
-0.30990501852305524
-0.517673589931942
-0.36195321905831435
0.8453729439452656
-0.32082425979005175
0.25087536000768307
-0.5183858539575457
-0.8035238273447071
0.8585937410456049
0.7109870844255853
0.8402510256876716
-0.07790778171490681
-0.955748124017572
-0.8227815105154205
-0.5281427978683998
0.2679433005057956
-0.5120825117036542
0.8354153971169904
-0.1146412509552101
-0.4630383947090952
0.13354879697809677
-0.49069850630059286
-1.0844804985158973
-0.42349861457444155
-1.042862193710767
-0.3426534211352782
0.48634140108077395
0.8160319559425101
0.3497406902537318
-0.10202219865713186
-0.6273428342622889
-0.5904158773063519
0.5517235053607777
-0.8285622155827195
0.9256719587126986
0.3529095043936315
-0.5691959091583527
-0.15032752188806967
-0.5807096998830608
-0.4613317498368061
-0.7166040610424386
-0.24396339215353588
0.01754310814310031
-0.15084427213157336
-1.1170751667025056
-0.10366932072099437
0.46894781098758637
0.4009224708043046
-0.5136922464020613
-0.11152264315120008
-0.5390818619641405
-0.5678348250739036
-0.5149903182840294
0.4298240104552093
1.0724251088849295
-0.8101919605675577
-0.17193836551734445
-0.519102904096317
-0.8642039290308582
0.5615488389276009
0.7262872448396916
-0.46138132429613
-0.8805180308788474
-0.9001615153655732
0.667059380935029
0.7392914672960621
-0.31542115903532436
-0.8501826974973167
0.4763345537861717
-0.7922006342452106
-0.2532165929406967
0.9661926481647773
0.14795957442530147
0.034490997189149074
1.0468800916515557
-0.031619498402873425
0.8476455714974809
0.16782612545338385
0.3082029178992237
-0.47163241710186965
-0.19942677846905904
0.5678133567455281
0.011115835966017349
0.16031262367980448
-0.45403234985739016
-0.5958556007001578
0.05157346054173556
-0.153768851523891
0.06091273246490494
0.49705948613769
0.3636759340590792
0.013132347526943023
0.5682325216164029
-0.39327472876036523
-0.9467437217528678
0.07731138964567305
-0.5318335103469591
0.23336130764699625
0.29423851916719335
-0.186787396195788
0.6627100364615959
0.3134676638242515
0.029756041875327884
-0.46553070561785126
-0.22906800016265297
0.4407267678294992
0.2522748696523524
-0.4366780418535937
1.0166114074628962
-0.3672062667314808
0.9921455105772438
1.095205625639939
-0.7716657359070648
-0.20726635106993008
0.8835274933897984
0.3846101550839751
0.6210321462035882
-0.25465458518119527
0.9311266081600319
-0.872752413571761
-0.8329396625988092
-0.3377006346754579
0.630228224577201
0.9548546402172585
0.7103406429369437
0.05424751475803956
0.432679789839693
0.7533307549775745
0.31221240693800284
0.7285952470077931
-0.38849157111764215
-0.46465797806110887
0.09460851056683103
0.13616168078855267
-0.4091495757054267
-0.35870541184977917
0.4796721259809305
-0.8183194890737991
-0.017007545085177045
-1.0769374952516342
0.7203296183440093
-0.9120529015173771
-0.17166646634028004
0.5531400415559574
-0.47528122597201067
-0.15268760028469192
0.40017372895323616
-0.13615707574020036
-0.6124892766596762
0.0850791694551217
0.6846671141699728
-0.2744036471631384
0.39955450054128433
-0.3716429145323865
0.5614584263267901
-1.0541471566615412
-0.6273073329487585
0.8923722062372822
0.8910685603289273
0.2916869841182459
-0.6528729329946777
0.29882405722325206
0.74933414173511
-0.18850268372090803
-0.4805296739488713
-0.7406188830817303
0.5635620535340486
-0.5389972026875809
-0.26695318393467743
-0.77875369208189
-0.19010649510673508
-0.627287545176941
-0.41275729505439623
0.9056362375669669
-0.7319248296513452
0.22068256538503223
0.06806707905925832
-0.10920122227082285
-0.07495503857926922
0.7000205400738875
0.035860192802959406
-0.7239191786377869
-0.6372582699244198
-0.18212472484673747
-0.5625617244540908
-0.7615601455221163
-0.5138876568661068
0.6613955830538768
-0.5038919447047497
0.17962567386860706
-1.0409954417017506
-0.6662217249381209
0.40778550239149763
0.5456358569043529
0.1359099497590377
0.9670980439225179
0.6232677022921284
-0.985781609772576
0.5714744001836903
-0.08626071871308244
-0.5861521735612304
-0.11596888500282201
0.9185629314798646
-0.23984990565436737
-0.22794279426672026
0.8537808774425582
-0.04332753270736794
0.854431678533502
-0.14357299412111454
-0.6708102627388474
-0.4155887013032147
-0.331904622527529
-0.3047425277482037
0.5363635449089637
-0.3034612750152134
0.08419050924931056
-0.5756878145408062
-0.6321941106182406
-0.6355390989111738
-0.7918628513268037
-0.5240231973285477
0.7446015872557952
0.04613877707147552
-0.9826893619888042
0.22693244791539574
0.16626919086367875
-0.9870943427914011
-0.9885723483984078
-0.4977323553705187
0.082494159334886
-0.2029038254141118
-0.5684457541717352
0.7197606017681922
1.0260388726680945
-0.31897787988825377
0.252610572633711
-0.3113121312664007
1.0280753177630815
-0.27850581522453816
0.963428477030036
-0.17172659446356126
0.4304712148531163
-1.1093407087112002
0.6244289000565586
-1.310213984173112
-0.063391368216532
0.6970435763601157
0.711285932563784
0.40889681123605603
0.67364308634662
-0.8992113966482962
-0.6322889593011696
-0.7823096423448547
0.17481944391647838
-1.2684795762968573
-1.024060442380883
0.3918548586257093
0.34803624695525853
0.3482707894201518
-0.10731875302150884
-0.1465728062191334
0.12004017106783384
-0.29078336317171005
-0.6475488167800159
-0.5511496348642245
-0.28399109053157745
0.584837001363223
0.85245964453803
0.5546425250241512
-0.3471865327414915
-0.6613117301936892
-0.7028681013154614
0.2570024740034
0.5418346625862028
-0.33117452816557463
-0.06382798335485146
-0.9784692884216653
0.14259200583840806
-0.3157539915389382
-0.10816707409662138
-0.8934904873848479
0.7288261015066976
-0.37110685611980765
-0.5767983687474809
0.9142554734940878
-0.5964829815217239
0.3886988288746377
0.7774405292663846
-0.1977444658009753
0.16645221722765174
0.3160324432536564
-0.37243718505440565
-0.5618852916159748
-0.43281844863089347
0.26542597462823636
-0.013815188011277764
0.3934180957391378
-0.502523316597117
-0.13382253283540418
0.10904267238462843
-0.4441152176279974
-0.11059724101317296
-0.3535829552018775
0.7396199284708462
-0.8514899002269698
0.0828848344844223
-0.21567024566294263
-0.06731861576774897
0.13548556968158648
0.8475402652378156
0.5751586874799314
-0.8433704800741155
-0.8323112278432193
-0.5787863854091144
-0.6582340163405116
-0.8380158021473545
-0.7908399462141379
0.9494212809516562
-0.3304941202274489
-0.4846903891038092
-0.25639290385445007
-0.2921415321568508
-0.3569545674382904
-0.5173709188670559
-0.6683629974497961
-0.32492444571674883
-0.9220091964174552
-0.9366630374280694
-0.28127203835509834
-0.16259636811400308
-0.6013461042112993
0.7051872843458086
-0.831688535221878
0.7746127960003438
-0.2628827366609795
-0.4714487297347638
-0.8528384916048308
0.16199856956704578
0.6313486612261052
0.31271609483311735
0.1538312386937955
0.28656078480356956
0.49887915486738454
-0.2641201440921905
0.6705820558376412
-0.9551448086121536
-0.06396186692494957
1.0282489353495583
0.32950995173813863
0.8872173536745207
-0.5850767008987311
-0.34531059117720375
-0.9161679852529726
-0.27133362456925547
-0.2899646088580163
-0.3945941998172451
0.5065615984334847
-0.09875741515555463
0.6374974271723252
-0.3865050578091201
-0.40057852295909663
0.07952026961126483
-0.9239476419039349
-0.9290337689567179
-1.0237583158894905
-0.5994809473123345
0.0109267971736336
-0.3422461445437378
-0.9076348304356485
0.8436817687526743
0.6682495965566999
-0.42788739361694766
0.3333119869043812
0.20418002901008647
-0.13964830147364823
0.3246931346151292
0.0005202825067921332
0.4525307054921435
0.9059625868102819
-1.064125451169153
1.0924565277270895
0.025541257279179743
0.9704074282522183
0.7214614991740835
0.766112478568229
-0.15696909971374925
-0.5223924055601136
0.32015361892731964
0.9344798716747186
0.19095488793976986
-0.18827789495349959
-0.1735374524818986
-0.4174833015776476
0.9927395418783425
0.6890262724314364
0.7171590029043329
-0.3966501705562664
0.07676871719553507
0.12162180470581342
0.16075484889419814
0.8366535417433567
0.5093770859596909
0.8330728299853921
0.7125308774835148
0.6069669640619559
0.4612122338213341
0.8015715903262619
-0.24336987165852486
0.9311957696781974
-0.5813409592299733
0.21188547295179622
0.08820019082925391
-0.23887825674314644
0.9245479614793193
-0.6036507169638115
0.2621408973286648
-0.825633943309887
-0.6950329670728673
-0.45656816844203724
-0.6776695738990046
0.4503178482266201
0.37343688623161325
0.25466568018713703
-0.37198193875599084
0.8030249449711048
0.8382738921250623
-0.9691305258398741
-0.8285834184246473
0.5263436307002253
-0.5198052343316524
0.4170457213626227
-0.8204393592666556
0.7811102713376745
0.8323689852338166
-0.6291471237797388
-0.6998256551807818
0.5306776969499076
-0.006852501418382123
0.5833010794751163
-0.795489723370449
-0.7601802973306845
-0.560038847604911
-0.5917013150523256
-0.7818865231815442
0.6804326354243655
0.8197793462090288
0.23220345007336862
-0.9952210351489889
-0.3552560653260242
-0.1721921497278388
0.7335008464828721
0.5362392672572401
-0.8700307494495847
-1.0839409019289152
0.531176516311142
0.6866821012667221
-0.33608115185809334
0.21710399740778413
-0.28584578403554817
0.3678647345159002
0.19320787592097044
0.17500607030671989
-0.924029652592836
-0.07473500093623485
0.4404562436521917
-0.1542249116390923
0.21964462168610843
0.5517739516900043
-1.0485106150627137
-0.440620631013255
0.7718379714313754
0.6978094100028258
0.35625823287912783
-0.5993668864676972
-0.9075391049426285
0.8022314723220715
-0.6722127151143895
0.08916873896718525
0.48893014370501825
-0.9730690064737589
-1.0559857641069987
0.8638076046679739
0.8574852535897777
0.18314468029976694
-0.8310490546518328
-0.587205834573718
-0.4357829347738643
0.3927580970169393
-0.49452595918653264
-0.5383630333380445
0.3672675265997534
-0.28025666522221204
0.32986799110860293
0.15253127789965926
0.06350003726658904
-0.6421982463631166
0.4223846671593406
0.6558840651538446
-0.8027739165745645
0.5318205728211188
-0.6874027115558985
-0.6574540969571896
-0.314929617003403
0.779497561746698
0.6597979598176963
-0.22997428211887783
0.7478111424278024
-0.7312169758336231
0.2905819252401382
0.08954761727247969
0.6326828980527959
-0.4204474942757627
0.9712770805294522
-0.37071402344163223
-0.027398957009357697
-0.8614528607586549
0.7948548568455067
0.11115403147906282
-0.982564817421949
-0.4311376077016838
0.7999126997664283
0.8204277064770746
0.7184011164551611
0.8103730069778803
-0.6121972224835058
-0.5220558229226115
-0.6693369349764341
-0.7672752842816716
-0.4362680469111392
0.08545696540275932
-0.7267479056857176
0.30284283698426445
1.1141089812005418
0.06671116529362318
-0.8531578526956677
0.7354203060794937
-0.22653468587780642
-0.23048068151069193
-0.7318366418157662
-0.05885435538682631
0.994440217555842
-0.6439512761546348
0.7135385950621578
-0.6252313088810972
-0.6936226772359969
0.5229626594557302
0.15226832273785418
-0.23985521801519286
-0.4550451031769159
-0.6386454289824355
0.5195508369545059
-1.2081832651471551
-0.4409381341330158
0.1723088387130885
0.9385340873804161
-1.0676341823166056
0.7294257151498804
-0.8507208760255892
-0.3757905026084842
-0.4650596529675922
-1.127500433610688
-0.89043716891774
0.3303491270968632
0.3157966184738381
-0.9879882299944498
-0.18181803021021792
0.8542166821146668
0.3224734123247192
0.25316290993898655
-0.259885387189135
-0.6359917408386527
-0.8336952165093431
1.0905666167740473
-0.07737881842042307
-0.4323891603180996
0.26319205086448816
-0.6198141724271096
-0.4849368650046526
0.5788526236257983
0.2940106389080715
0.4964545290667659
-0.5948928578736047
1.0248418010455396
0.7112014078799553
-0.7595679855659139
0.0684948129649348
0.7116172023960121
1.2037932861152127
0.02630296636980195
-0.05320270158668672
-0.9234747270758865
-0.843024966183252
0.44190193009673323
0.731155003500933
-0.16331280328218511
0.9150793688857093
-0.17116474332763157
-0.6521586984869849
-0.4012911853653747
0.43801191912887427
0.9635047687775891
-0.8364854042363526
0.16583707686277296
-1.0279083542097918
-0.8042029139099611
0.19566466678629318
-0.016619504863066178
-0.7820500238788229
0.8065772020387689
0.4162355032624468
-0.08022815381990182
0.580122805997851
-0.2102547236058598
-0.7042092453535361
0.7656257016379029
-0.6102895275616086
-0.4794549654587676
-0.06514830190335141
0.6961525595609
-0.8512947714420269
-0.8000581029404258
0.3596866533163108
0.43196348683553193
0.6144365109124855
-1.0141260986399865
-0.15885406273492156
0.8903953322147374
0.9516157585196737
-0.5319283800198905
-0.8099876672283289
-0.4713630944063147
-0.5050977989231829
0.7907073159192424
-0.37765662361312163
0.6289570847490866
-0.5715822035340797
0.0428144514996388
-0.04459390216205767
0.3135706398025356
0.39900685561142796
0.2873096135707427
-0.2616344213857699
-0.3884825825694473
-0.3070684462617932
0.2784927048334204
0.6409550425500214
0.5978110566555723
0.44425105885181615
-0.5377745397380752
0.6861164039352908
0.08200720716249496
0.32678347426043314
0.5690776395639319
-0.599379194330803
-0.4279499704721812
0.02949874439981087
0.0023317464546521367
-0.013776360585025595
-0.19187528381973248
0.18997548445962778
-0.2069234892831635
0.22029443605062138
0.3140720743577071
-0.30122164375393856
0.02591128330093541
-0.4015370890298958
0.7428416838941998
0.5812488335883678
0.31705662660864414
-0.7480384815095019
-0.9483933841203752
0.43447474854355
-0.6918803946338332
0.624982524490829
0.4064684758316192
-1.1119210973320526
0.1945288616888252
0.3454160462447858
-0.11607866329921866
0.018784312815837284
-0.7363442735174329
-0.4435273714683591
0.48872677148183546
-0.6730267107894199
-0.2763174831032975
-0.8033396460552342
-0.3140205672187336
-0.10045166544204907
0.25083697903737734
0.15061896657791204
0.7560333356190512
0.03210410888150292
-0.39888129691303287
0.42776464722794405
-0.42549230068424704
0.375496102808456
-0.5465732317780243
0.016963396951568486
-0.7209721319847663
-0.9931039975740146
-0.6813613029436691
0.3072084410257943
0.014943305792796685
0.7634306981177283
-0.6985841808447129
0.13706465917956245
-0.9433723166235574
0.5662869790257481
0.7249087759237942
-0.3775510777666642
0.03267350848634003
-0.09393669837307674
0.4171565066991555
0.5197846117712407
0.9901087429486384
0.8421687288743395
0.5745683742277812
-1.0363030684521983
-0.8668675235467544
0.4340571128314877
-0.45441571291285304
1.018116015055259
0.43247279170608355
0.8415947892298626
0.17920563183811858
-1.1513001393011044
-0.5950707318950443
-0.556422698575949
0.8425019038722577
0.08317413933582322
-0.32059674127563875
-0.3062475661649328
0.24798694472085084
-0.178089476188167
-0.3760394257511146
-0.8248937188223949
-0.9720257230028161
0.0013831088007509175
-0.29355702590175214
-0.7122895779642936
0.2307581014567187
-0.6453129272826178
-0.35740218967708615
0.48061333912244325
0.056195299182795984
0.5181287646624151
0.7284343668759152
0.9413426464697895
-0.7290799459974943
0.9528027322075626
1.2551218350938544
-0.40279438846897414
0.9398315239918164
-0.3774597664517281
0.1647907414235582
-0.9613368104330994
-0.9778298846404451
0.6799907261642136
-0.9464374688684112
0.03823726489419286
-0.6605667887201339
-0.9755460263871237
0.8121233059887996
-0.7709401884703405
0.7204063993741461
-0.04447500031266857
-0.24310507198603798
0.7364049604896151
0.6256227021816935
-0.5337217942390837
-0.580705073719769
-0.29378072027810975
-0.022419345442267775
-0.15905677245277525
0.5929253637750862
-0.7673630422959078
-0.3854000895743277
-0.444964819628165
-0.9680506478946755
-0.6700379190065309
0.5464785164822015
1.0507639730474854
-0.2683709917947045
0.9139166525649858
0.7947249457856647
0.8112305197256426
0.5018592468021501
-0.3552271108964816
-0.7617417097255793
0.27017084983242495
1.0057640967591779
0.29581822920499734
-0.3435456893767561
0.10005542630277414
0.6986753307011351
-0.17780699376049924
0.575172986354972
0.5743875012363898
1.0338890157605038
0.371616166162408
0.6652791249253773
-0.4627384579594018
0.44412025308305325
0.6772481911898508
-0.18737065428613026
-0.5103276813352228
0.17219887910284626
0.32785619168831626
0.694460894009925
-0.6208979576506577
0.4452535058568564
-0.06518278460022565
0.905927730146548
-0.5177052817616943
-0.5996730216894465
-0.7714418509984116
-0.13049042133132926
0.038173185469869635
-0.225723517096809
0.4335611687183645
0.36119469864904924
-0.10087655071039255
-0.7190177130415049
-0.6390638934226966
-0.8337212776901131
-0.22615466983588908
-1.1071612981385117
0.16035295475786052
0.4883027151209803
-0.9178765095732738
0.0310667202073661
0.6288315271727609
-0.42263331293245954
0.11601670997316595
-1.1308978981427888
-0.540969129825183
-0.33790040611408484
-0.44456371760506624
0.6352836506714322
0.7527323813300365
0.6422316562637488
0.18616316981544373
-0.18774999743658627
0.6175612072979761
